digraph Tree {
node [shape=box] ;
rankdir=LR ;
0 [label="V14 <= 0.645\ngini = 0.495\nsamples = 100.0%\nvalue = [0.449, 0.551]"] ;
1 [label="V4 <= 0.218\ngini = 0.052\nsamples = 3.1%\nvalue = [0.027, 0.973]"] ;
0 -> 1 [labeldistance=2.5, labelangle=-45, headlabel="True"] ;
2 [label="gini = 0.0\nsamples = 0.7%\nvalue = [1.0, 0.0]"] ;
1 -> 2 ;
3 [label="V12 <= 0.74\ngini = 0.04\nsamples = 2.4%\nvalue = [0.021, 0.979]"] ;
1 -> 3 ;
4 [label="V10 <= 0.645\ngini = 0.002\nsamples = 0.3%\nvalue = [0.001, 0.999]"] ;
3 -> 4 ;
5 [label="V11 <= 0.244\ngini = 0.002\nsamples = 0.2%\nvalue = [0.001, 0.999]"] ;
4 -> 5 ;
6 [label="gini = 0.0\nsamples = 0.0%\nvalue = [1.0, 0.0]"] ;
5 -> 6 ;
7 [label="V16 <= 0.541\ngini = 0.002\nsamples = 0.2%\nvalue = [0.001, 0.999]"] ;
5 -> 7 ;
8 [label="V1 <= 0.992\ngini = 0.002\nsamples = 0.2%\nvalue = [0.001, 0.999]"] ;
7 -> 8 ;
9 [label="V18 <= 0.943\ngini = 0.001\nsamples = 0.2%\nvalue = [0.001, 0.999]"] ;
8 -> 9 ;
10 [label="V13 <= 0.614\ngini = 0.001\nsamples = 0.2%\nvalue = [0.001, 0.999]"] ;
9 -> 10 ;
11 [label="V25 <= 0.702\ngini = 0.001\nsamples = 0.2%\nvalue = [0.001, 0.999]"] ;
10 -> 11 ;
12 [label="gini = 0.001\nsamples = 0.2%\nvalue = [0.001, 0.999]"] ;
11 -> 12 ;
13 [label="gini = 0.0\nsamples = 0.0%\nvalue = [1.0, 0.0]"] ;
11 -> 13 ;
14 [label="gini = 0.0\nsamples = 0.0%\nvalue = [1.0, 0.0]"] ;
10 -> 14 ;
15 [label="gini = 0.0\nsamples = 0.0%\nvalue = [1.0, 0.0]"] ;
9 -> 15 ;
16 [label="gini = 0.0\nsamples = 0.0%\nvalue = [1.0, 0.0]"] ;
8 -> 16 ;
17 [label="gini = 0.0\nsamples = 0.0%\nvalue = [1.0, 0.0]"] ;
7 -> 17 ;
18 [label="gini = 0.0\nsamples = 0.0%\nvalue = [1.0, 0.0]"] ;
4 -> 18 ;
19 [label="V15 <= 0.398\ngini = 0.331\nsamples = 2.1%\nvalue = [0.209, 0.791]"] ;
3 -> 19 ;
20 [label="V26 <= 0.503\ngini = 0.274\nsamples = 1.6%\nvalue = [0.163, 0.837]"] ;
19 -> 20 ;
21 [label="V18 <= 0.671\ngini = 0.207\nsamples = 1.1%\nvalue = [0.118, 0.882]"] ;
20 -> 21 ;
22 [label="gini = 0.0\nsamples = 0.2%\nvalue = [1.0, 0.0]"] ;
21 -> 22 ;
23 [label="V27 <= 0.235\ngini = 0.174\nsamples = 0.9%\nvalue = [0.096, 0.904]"] ;
21 -> 23 ;
24 [label="gini = 0.0\nsamples = 0.1%\nvalue = [1.0, 0.0]"] ;
23 -> 24 ;
25 [label="V8 <= 0.724\ngini = 0.153\nsamples = 0.7%\nvalue = [0.083, 0.917]"] ;
23 -> 25 ;
26 [label="V24 <= 0.24\ngini = 0.133\nsamples = 0.6%\nvalue = [0.072, 0.928]"] ;
25 -> 26 ;
27 [label="gini = 0.0\nsamples = 0.1%\nvalue = [1.0, 0.0]"] ;
26 -> 27 ;
28 [label="V16 <= 0.437\ngini = 0.12\nsamples = 0.6%\nvalue = [0.064, 0.936]"] ;
26 -> 28 ;
29 [label="gini = 0.0\nsamples = 0.1%\nvalue = [1.0, 0.0]"] ;
28 -> 29 ;
30 [label="gini = 0.108\nsamples = 0.5%\nvalue = [0.057, 0.943]"] ;
28 -> 30 ;
31 [label="gini = 0.0\nsamples = 0.1%\nvalue = [1.0, 0.0]"] ;
25 -> 31 ;
32 [label="gini = 0.0\nsamples = 0.5%\nvalue = [1.0, 0.0]"] ;
20 -> 32 ;
33 [label="gini = 0.0\nsamples = 0.5%\nvalue = [1.0, 0.0]"] ;
19 -> 33 ;
34 [label="V4 <= 0.326\ngini = 0.258\nsamples = 96.9%\nvalue = [0.848, 0.152]"] ;
0 -> 34 [labeldistance=2.5, labelangle=45, headlabel="False"] ;
35 [label="V20 <= 0.577\ngini = 0.169\nsamples = 89.2%\nvalue = [0.907, 0.093]"] ;
34 -> 35 ;
36 [label="V12 <= 0.8\ngini = 0.489\nsamples = 1.4%\nvalue = [0.424, 0.576]"] ;
35 -> 36 ;
37 [label="V28 <= 0.314\ngini = 0.308\nsamples = 0.4%\nvalue = [0.19, 0.81]"] ;
36 -> 37 ;
38 [label="gini = 0.0\nsamples = 0.3%\nvalue = [1.0, 0.0]"] ;
37 -> 38 ;
39 [label="V4 <= 0.243\ngini = 0.143\nsamples = 0.2%\nvalue = [0.077, 0.923]"] ;
37 -> 39 ;
40 [label="gini = 0.0\nsamples = 0.1%\nvalue = [1.0, 0.0]"] ;
39 -> 40 ;
41 [label="V23 <= 0.671\ngini = 0.053\nsamples = 0.1%\nvalue = [0.027, 0.973]"] ;
39 -> 41 ;
42 [label="V16 <= 0.436\ngini = 0.019\nsamples = 0.0%\nvalue = [0.01, 0.99]"] ;
41 -> 42 ;
43 [label="V28 <= 0.322\ngini = 0.01\nsamples = 0.0%\nvalue = [0.005, 0.995]"] ;
42 -> 43 ;
44 [label="V13 <= 0.427\ngini = 0.005\nsamples = 0.0%\nvalue = [0.002, 0.998]"] ;
43 -> 44 ;
45 [label="gini = 0.002\nsamples = 0.0%\nvalue = [0.001, 0.999]"] ;
44 -> 45 ;
46 [label="gini = 0.0\nsamples = 0.0%\nvalue = [1.0, 0.0]"] ;
44 -> 46 ;
47 [label="gini = 0.0\nsamples = 0.0%\nvalue = [1.0, 0.0]"] ;
43 -> 47 ;
48 [label="gini = 0.0\nsamples = 0.0%\nvalue = [1.0, 0.0]"] ;
42 -> 48 ;
49 [label="gini = 0.0\nsamples = 0.0%\nvalue = [1.0, 0.0]"] ;
41 -> 49 ;
50 [label="gini = -0.0\nsamples = 0.9%\nvalue = [1.0, 0.0]"] ;
36 -> 50 ;
51 [label="V7 <= 0.283\ngini = 0.142\nsamples = 87.8%\nvalue = [0.923, 0.077]"] ;
35 -> 51 ;
52 [label="V14 <= 0.695\ngini = 0.127\nsamples = 87.4%\nvalue = [0.932, 0.068]"] ;
51 -> 52 ;
53 [label="Time <= 0.447\ngini = 0.321\nsamples = 18.2%\nvalue = [0.799, 0.201]"] ;
52 -> 53 ;
54 [label="V13 <= 0.341\ngini = 0.472\nsamples = 6.4%\nvalue = [0.619, 0.381]"] ;
53 -> 54 ;
55 [label="V8 <= 0.72\ngini = 0.484\nsamples = 2.1%\nvalue = [0.411, 0.589]"] ;
54 -> 55 ;
56 [label="V17 <= 0.738\ngini = 0.378\nsamples = 1.0%\nvalue = [0.253, 0.747]"] ;
55 -> 56 ;
57 [label="gini = 0.0\nsamples = 0.4%\nvalue = [1.0, 0.0]"] ;
56 -> 57 ;
58 [label="Time <= 0.263\ngini = 0.278\nsamples = 0.6%\nvalue = [0.167, 0.833]"] ;
56 -> 58 ;
59 [label="gini = 0.0\nsamples = 0.2%\nvalue = [1.0, 0.0]"] ;
58 -> 59 ;
60 [label="gini = 0.192\nsamples = 0.4%\nvalue = [0.108, 0.892]"] ;
58 -> 60 ;
61 [label="gini = 0.0\nsamples = 1.1%\nvalue = [1.0, 0.0]"] ;
55 -> 61 ;
62 [label="V9 <= 0.589\ngini = 0.289\nsamples = 4.3%\nvalue = [0.825, 0.175]"] ;
54 -> 62 ;
63 [label="gini = -0.0\nsamples = 3.3%\nvalue = [1.0, 0.0]"] ;
62 -> 63 ;
64 [label="V17 <= 0.727\ngini = 0.499\nsamples = 1.0%\nvalue = [0.522, 0.478]"] ;
62 -> 64 ;
65 [label="V17 <= 0.72\ngini = 0.441\nsamples = 0.4%\nvalue = [0.329, 0.671]"] ;
64 -> 65 ;
66 [label="gini = -0.0\nsamples = 0.3%\nvalue = [1.0, 0.0]"] ;
65 -> 66 ;
67 [label="gini = 0.251\nsamples = 0.2%\nvalue = [0.147, 0.853]"] ;
65 -> 67 ;
68 [label="gini = 0.0\nsamples = 0.6%\nvalue = [1.0, 0.0]"] ;
64 -> 68 ;
69 [label="V3 <= 0.852\ngini = 0.094\nsamples = 11.7%\nvalue = [0.951, 0.049]"] ;
53 -> 69 ;
70 [label="V3 <= 0.852\ngini = 0.37\nsamples = 0.1%\nvalue = [0.245, 0.755]"] ;
69 -> 70 ;
71 [label="gini = 0.0\nsamples = 0.1%\nvalue = [1.0, 0.0]"] ;
70 -> 71 ;
72 [label="gini = 0.0\nsamples = 0.0%\nvalue = [0.0, 1.0]"] ;
70 -> 72 ;
73 [label="V19 <= 0.636\ngini = 0.05\nsamples = 11.6%\nvalue = [0.974, 0.026]"] ;
69 -> 73 ;
74 [label="gini = 0.0\nsamples = 10.9%\nvalue = [1.0, 0.0]"] ;
73 -> 74 ;
75 [label="V19 <= 0.636\ngini = 0.42\nsamples = 0.7%\nvalue = [0.7, 0.3]"] ;
73 -> 75 ;
76 [label="gini = 0.0\nsamples = 0.0%\nvalue = [0.0, 1.0]"] ;
75 -> 76 ;
77 [label="gini = 0.0\nsamples = 0.7%\nvalue = [1.0, 0.0]"] ;
75 -> 77 ;
78 [label="V20 <= 0.595\ngini = 0.05\nsamples = 69.2%\nvalue = [0.974, 0.026]"] ;
52 -> 78 ;
79 [label="V13 <= 0.501\ngini = 0.009\nsamples = 65.3%\nvalue = [0.995, 0.005]"] ;
78 -> 79 ;
80 [label="gini = 0.0\nsamples = 61.8%\nvalue = [1.0, 0.0]"] ;
79 -> 80 ;
81 [label="V13 <= 0.501\ngini = 0.146\nsamples = 3.5%\nvalue = [0.92, 0.08]"] ;
79 -> 81 ;
82 [label="gini = 0.0\nsamples = 0.0%\nvalue = [0.0, 1.0]"] ;
81 -> 82 ;
83 [label="gini = -0.0\nsamples = 3.5%\nvalue = [1.0, 0.0]"] ;
81 -> 83 ;
84 [label="V7 <= 0.273\ngini = 0.403\nsamples = 3.9%\nvalue = [0.72, 0.28]"] ;
78 -> 84 ;
85 [label="V19 <= 0.753\ngini = 0.156\nsamples = 3.3%\nvalue = [0.915, 0.085]"] ;
84 -> 85 ;
86 [label="gini = 0.0\nsamples = 3.2%\nvalue = [1.0, 0.0]"] ;
85 -> 86 ;
87 [label="V19 <= 0.754\ngini = 0.21\nsamples = 0.0%\nvalue = [0.119, 0.881]"] ;
85 -> 87 ;
88 [label="gini = 0.0\nsamples = 0.0%\nvalue = [0.0, 1.0]"] ;
87 -> 88 ;
89 [label="gini = 0.0\nsamples = 0.0%\nvalue = [1.0, 0.0]"] ;
87 -> 89 ;
90 [label="V7 <= 0.275\ngini = 0.454\nsamples = 0.7%\nvalue = [0.349, 0.651]"] ;
84 -> 90 ;
91 [label="V18 <= 0.683\ngini = 0.192\nsamples = 0.1%\nvalue = [0.108, 0.892]"] ;
90 -> 91 ;
92 [label="gini = 0.0\nsamples = 0.1%\nvalue = [1.0, 0.0]"] ;
91 -> 92 ;
93 [label="V4 <= 0.259\ngini = 0.096\nsamples = 0.1%\nvalue = [0.051, 0.949]"] ;
91 -> 93 ;
94 [label="gini = 0.0\nsamples = 0.0%\nvalue = [1.0, 0.0]"] ;
93 -> 94 ;
95 [label="gini = 0.044\nsamples = 0.0%\nvalue = [0.023, 0.977]"] ;
93 -> 95 ;
96 [label="gini = -0.0\nsamples = 0.5%\nvalue = [1.0, 0.0]"] ;
90 -> 96 ;
97 [label="V26 <= 0.337\ngini = 0.442\nsamples = 0.4%\nvalue = [0.329, 0.671]"] ;
51 -> 97 ;
98 [label="V23 <= 0.673\ngini = 0.123\nsamples = 0.1%\nvalue = [0.066, 0.934]"] ;
97 -> 98 ;
99 [label="V13 <= 0.314\ngini = 0.035\nsamples = 0.0%\nvalue = [0.018, 0.982]"] ;
98 -> 99 ;
100 [label="V19 <= 0.554\ngini = 0.008\nsamples = 0.0%\nvalue = [0.004, 0.996]"] ;
99 -> 100 ;
101 [label="gini = 0.0\nsamples = 0.0%\nvalue = [1.0, 0.0]"] ;
100 -> 101 ;
102 [label="V12 <= 0.811\ngini = 0.001\nsamples = 0.0%\nvalue = [0.0, 1.0]"] ;
100 -> 102 ;
103 [label="gini = 0.0\nsamples = 0.0%\nvalue = [0.0, 1.0]"] ;
102 -> 103 ;
104 [label="gini = 0.0\nsamples = 0.0%\nvalue = [1.0, 0.0]"] ;
102 -> 104 ;
105 [label="gini = 0.0\nsamples = 0.0%\nvalue = [1.0, 0.0]"] ;
99 -> 105 ;
106 [label="gini = 0.0\nsamples = 0.0%\nvalue = [1.0, 0.0]"] ;
98 -> 106 ;
107 [label="gini = -0.0\nsamples = 0.4%\nvalue = [1.0, 0.0]"] ;
97 -> 107 ;
108 [label="V8 <= 0.716\ngini = 0.5\nsamples = 7.8%\nvalue = [0.485, 0.515]"] ;
34 -> 108 ;
109 [label="V21 <= 0.455\ngini = 0.358\nsamples = 2.0%\nvalue = [0.233, 0.767]"] ;
108 -> 109 ;
110 [label="V23 <= 0.661\ngini = 0.203\nsamples = 0.6%\nvalue = [0.115, 0.885]"] ;
109 -> 110 ;
111 [label="gini = 0.0\nsamples = 0.1%\nvalue = [1.0, 0.0]"] ;
110 -> 111 ;
112 [label="V25 <= 0.617\ngini = 0.168\nsamples = 0.5%\nvalue = [0.093, 0.907]"] ;
110 -> 112 ;
113 [label="V11 <= 0.209\ngini = 0.146\nsamples = 0.4%\nvalue = [0.079, 0.921]"] ;
112 -> 113 ;
114 [label="gini = 0.0\nsamples = 0.1%\nvalue = [1.0, 0.0]"] ;
113 -> 114 ;
115 [label="V3 <= 0.957\ngini = 0.126\nsamples = 0.4%\nvalue = [0.068, 0.932]"] ;
113 -> 115 ;
116 [label="V9 <= 0.599\ngini = 0.109\nsamples = 0.3%\nvalue = [0.058, 0.942]"] ;
115 -> 116 ;
117 [label="V14 <= 0.771\ngini = 0.097\nsamples = 0.3%\nvalue = [0.051, 0.949]"] ;
116 -> 117 ;
118 [label="gini = 0.087\nsamples = 0.2%\nvalue = [0.046, 0.954]"] ;
117 -> 118 ;
119 [label="gini = 0.0\nsamples = 0.0%\nvalue = [1.0, 0.0]"] ;
117 -> 119 ;
120 [label="gini = 0.0\nsamples = 0.0%\nvalue = [1.0, 0.0]"] ;
116 -> 120 ;
121 [label="gini = 0.0\nsamples = 0.1%\nvalue = [1.0, 0.0]"] ;
115 -> 121 ;
122 [label="gini = 0.0\nsamples = 0.1%\nvalue = [1.0, 0.0]"] ;
112 -> 122 ;
123 [label="V5 <= 0.771\ngini = 0.497\nsamples = 1.3%\nvalue = [0.463, 0.537]"] ;
109 -> 123 ;
124 [label="gini = 0.0\nsamples = 0.9%\nvalue = [1.0, 0.0]"] ;
123 -> 124 ;
125 [label="V25 <= 0.57\ngini = 0.355\nsamples = 0.5%\nvalue = [0.231, 0.769]"] ;
123 -> 125 ;
126 [label="V24 <= 0.401\ngini = 0.194\nsamples = 0.2%\nvalue = [0.109, 0.891]"] ;
125 -> 126 ;
127 [label="gini = 0.0\nsamples = 0.1%\nvalue = [1.0, 0.0]"] ;
126 -> 127 ;
128 [label="V14 <= 0.723\ngini = 0.096\nsamples = 0.1%\nvalue = [0.05, 0.95]"] ;
126 -> 128 ;
129 [label="V3 <= 0.934\ngini = 0.053\nsamples = 0.0%\nvalue = [0.027, 0.973]"] ;
128 -> 129 ;
130 [label="V2 <= 0.782\ngini = 0.027\nsamples = 0.0%\nvalue = [0.014, 0.986]"] ;
129 -> 130 ;
131 [label="gini = 0.015\nsamples = 0.0%\nvalue = [0.007, 0.993]"] ;
130 -> 131 ;
132 [label="gini = 0.0\nsamples = 0.0%\nvalue = [1.0, 0.0]"] ;
130 -> 132 ;
133 [label="gini = 0.0\nsamples = 0.0%\nvalue = [1.0, 0.0]"] ;
129 -> 133 ;
134 [label="gini = 0.0\nsamples = 0.0%\nvalue = [1.0, 0.0]"] ;
128 -> 134 ;
135 [label="gini = -0.0\nsamples = 0.3%\nvalue = [1.0, 0.0]"] ;
125 -> 135 ;
136 [label="V10 <= 0.612\ngini = 0.364\nsamples = 5.8%\nvalue = [0.761, 0.239]"] ;
108 -> 136 ;
137 [label="V2 <= 0.776\ngini = 0.475\nsamples = 1.0%\nvalue = [0.387, 0.613]"] ;
136 -> 137 ;
138 [label="gini = 0.0\nsamples = 0.8%\nvalue = [1.0, 0.0]"] ;
137 -> 138 ;
139 [label="V20 <= 0.586\ngini = 0.164\nsamples = 0.2%\nvalue = [0.09, 0.91]"] ;
137 -> 139 ;
140 [label="V11 <= 0.292\ngini = 0.048\nsamples = 0.0%\nvalue = [0.024, 0.976]"] ;
139 -> 140 ;
141 [label="gini = 0.0\nsamples = 0.0%\nvalue = [1.0, 0.0]"] ;
140 -> 141 ;
142 [label="V6 <= 0.262\ngini = 0.013\nsamples = 0.0%\nvalue = [0.006, 0.994]"] ;
140 -> 142 ;
143 [label="V28 <= 0.311\ngini = 0.004\nsamples = 0.0%\nvalue = [0.002, 0.998]"] ;
142 -> 143 ;
144 [label="gini = 0.0\nsamples = 0.0%\nvalue = [1.0, 0.0]"] ;
143 -> 144 ;
145 [label="V13 <= 0.505\ngini = 0.001\nsamples = 0.0%\nvalue = [0.0, 1.0]"] ;
143 -> 145 ;
146 [label="gini = 0.0\nsamples = 0.0%\nvalue = [0.0, 1.0]"] ;
145 -> 146 ;
147 [label="gini = 0.0\nsamples = 0.0%\nvalue = [1.0, 0.0]"] ;
145 -> 147 ;
148 [label="gini = 0.0\nsamples = 0.0%\nvalue = [1.0, 0.0]"] ;
142 -> 148 ;
149 [label="gini = 0.0\nsamples = 0.1%\nvalue = [1.0, 0.0]"] ;
139 -> 149 ;
150 [label="V12 <= 0.857\ngini = 0.111\nsamples = 4.8%\nvalue = [0.941, 0.059]"] ;
136 -> 150 ;
151 [label="gini = -0.0\nsamples = 4.7%\nvalue = [1.0, 0.0]"] ;
150 -> 151 ;
152 [label="V12 <= 0.857\ngini = 0.396\nsamples = 0.1%\nvalue = [0.272, 0.728]"] ;
150 -> 152 ;
153 [label="gini = 0.0\nsamples = 0.0%\nvalue = [0.0, 1.0]"] ;
152 -> 153 ;
154 [label="gini = 0.0\nsamples = 0.1%\nvalue = [1.0, 0.0]"] ;
152 -> 154 ;
}
