digraph Tree {
node [shape=box] ;
rankdir=LR ;
0 [label="V14 <= 0.585\ngini = 0.497\nsamples = 100.0%\nvalue = [0.458, 0.542]"] ;
1 [label="V4 <= 0.216\ngini = 0.054\nsamples = 3.0%\nvalue = [0.028, 0.972]"] ;
0 -> 1 [labeldistance=2.5, labelangle=-45, headlabel="True"] ;
2 [label="gini = 0.0\nsamples = 0.7%\nvalue = [1.0, 0.0]"] ;
1 -> 2 ;
3 [label="V12 <= 0.649\ngini = 0.042\nsamples = 2.4%\nvalue = [0.021, 0.979]"] ;
1 -> 3 ;
4 [label="V11 <= 0.288\ngini = 0.003\nsamples = 0.3%\nvalue = [0.001, 0.999]"] ;
3 -> 4 ;
5 [label="gini = 0.0\nsamples = 0.0%\nvalue = [1.0, 0.0]"] ;
4 -> 5 ;
6 [label="V10 <= 0.646\ngini = 0.002\nsamples = 0.2%\nvalue = [0.001, 0.999]"] ;
4 -> 6 ;
7 [label="V16 <= 0.533\ngini = 0.001\nsamples = 0.2%\nvalue = [0.001, 0.999]"] ;
6 -> 7 ;
8 [label="V13 <= 0.667\ngini = 0.001\nsamples = 0.2%\nvalue = [0.001, 0.999]"] ;
7 -> 8 ;
9 [label="V18 <= 0.901\ngini = 0.001\nsamples = 0.2%\nvalue = [0.001, 0.999]"] ;
8 -> 9 ;
10 [label="V14 <= 0.584\ngini = 0.001\nsamples = 0.2%\nvalue = [0.001, 0.999]"] ;
9 -> 10 ;
11 [label="Time <= 0.002\ngini = 0.001\nsamples = 0.2%\nvalue = [0.001, 0.999]"] ;
10 -> 11 ;
12 [label="gini = 0.0\nsamples = 0.0%\nvalue = [1.0, 0.0]"] ;
11 -> 12 ;
13 [label="V3 <= 0.326\ngini = 0.001\nsamples = 0.2%\nvalue = [0.001, 0.999]"] ;
11 -> 13 ;
14 [label="gini = 0.0\nsamples = 0.0%\nvalue = [1.0, 0.0]"] ;
13 -> 14 ;
15 [label="V1 <= 0.992\ngini = 0.001\nsamples = 0.2%\nvalue = [0.001, 0.999]"] ;
13 -> 15 ;
16 [label="V3 <= 0.927\ngini = 0.001\nsamples = 0.2%\nvalue = [0.0, 1.0]"] ;
15 -> 16 ;
17 [label="V14 <= 0.554\ngini = 0.001\nsamples = 0.2%\nvalue = [0.0, 1.0]"] ;
16 -> 17 ;
18 [label="V24 <= 0.099\ngini = 0.001\nsamples = 0.2%\nvalue = [0.0, 1.0]"] ;
17 -> 18 ;
19 [label="gini = 0.0\nsamples = 0.0%\nvalue = [1.0, 0.0]"] ;
18 -> 19 ;
20 [label="V26 <= 0.228\ngini = 0.001\nsamples = 0.2%\nvalue = [0.0, 1.0]"] ;
18 -> 20 ;
21 [label="gini = 0.0\nsamples = 0.0%\nvalue = [1.0, 0.0]"] ;
20 -> 21 ;
22 [label="V13 <= 0.199\ngini = 0.001\nsamples = 0.2%\nvalue = [0.0, 1.0]"] ;
20 -> 22 ;
23 [label="gini = 0.0\nsamples = 0.0%\nvalue = [1.0, 0.0]"] ;
22 -> 23 ;
24 [label="V17 <= 0.792\ngini = 0.0\nsamples = 0.2%\nvalue = [0.0, 1.0]"] ;
22 -> 24 ;
25 [label="V27 <= 0.279\ngini = 0.0\nsamples = 0.1%\nvalue = [0.0, 1.0]"] ;
24 -> 25 ;
26 [label="V4 <= 0.438\ngini = 0.0\nsamples = 0.1%\nvalue = [0.0, 1.0]"] ;
25 -> 26 ;
27 [label="V4 <= 0.436\ngini = 0.0\nsamples = 0.1%\nvalue = [0.0, 1.0]"] ;
26 -> 27 ;
28 [label="V16 <= 0.202\ngini = 0.0\nsamples = 0.1%\nvalue = [0.0, 1.0]"] ;
27 -> 28 ;
29 [label="gini = 0.0\nsamples = 0.0%\nvalue = [1.0, 0.0]"] ;
28 -> 29 ;
30 [label="V10 <= 0.451\ngini = 0.0\nsamples = 0.1%\nvalue = [0.0, 1.0]"] ;
28 -> 30 ;
31 [label="V20 <= 0.588\ngini = 0.006\nsamples = 0.0%\nvalue = [0.003, 0.997]"] ;
30 -> 31 ;
32 [label="gini = 0.0\nsamples = 0.0%\nvalue = [0.0, 1.0]"] ;
31 -> 32 ;
33 [label="gini = 0.0\nsamples = 0.0%\nvalue = [1.0, 0.0]"] ;
31 -> 33 ;
34 [label="V13 <= 0.571\ngini = 0.0\nsamples = 0.1%\nvalue = [0.0, 1.0]"] ;
30 -> 34 ;
35 [label="V15 <= 0.502\ngini = 0.0\nsamples = 0.1%\nvalue = [0.0, 1.0]"] ;
34 -> 35 ;
36 [label="V18 <= 0.688\ngini = 0.0\nsamples = 0.1%\nvalue = [0.0, 1.0]"] ;
35 -> 36 ;
37 [label="V17 <= 0.393\ngini = 0.0\nsamples = 0.1%\nvalue = [0.0, 1.0]"] ;
36 -> 37 ;
38 [label="V15 <= 0.336\ngini = 0.003\nsamples = 0.0%\nvalue = [0.001, 0.999]"] ;
37 -> 38 ;
39 [label="gini = 0.0\nsamples = 0.0%\nvalue = [0.0, 1.0]"] ;
38 -> 39 ;
40 [label="gini = 0.0\nsamples = 0.0%\nvalue = [1.0, 0.0]"] ;
38 -> 40 ;
41 [label="V4 <= 0.315\ngini = 0.0\nsamples = 0.1%\nvalue = [0.0, 1.0]"] ;
37 -> 41 ;
42 [label="V20 <= 0.589\ngini = 0.0\nsamples = 0.0%\nvalue = [0.0, 1.0]"] ;
41 -> 42 ;
43 [label="V1 <= 0.961\ngini = 0.0\nsamples = 0.0%\nvalue = [0.0, 1.0]"] ;
42 -> 43 ;
44 [label="V24 <= 0.444\ngini = 0.0\nsamples = 0.0%\nvalue = [0.0, 1.0]"] ;
43 -> 44 ;
45 [label="V27 <= 0.257\ngini = 0.0\nsamples = 0.0%\nvalue = [0.0, 1.0]"] ;
44 -> 45 ;
46 [label="gini = 0.0\nsamples = 0.0%\nvalue = [0.0, 1.0]"] ;
45 -> 46 ;
47 [label="Amount <= 0.005\ngini = 0.003\nsamples = 0.0%\nvalue = [0.001, 0.999]"] ;
45 -> 47 ;
48 [label="gini = 0.0\nsamples = 0.0%\nvalue = [1.0, 0.0]"] ;
47 -> 48 ;
49 [label="gini = 0.0\nsamples = 0.0%\nvalue = [0.0, 1.0]"] ;
47 -> 49 ;
50 [label="gini = 0.0\nsamples = 0.0%\nvalue = [1.0, 0.0]"] ;
44 -> 50 ;
51 [label="gini = 0.0\nsamples = 0.0%\nvalue = [1.0, 0.0]"] ;
43 -> 51 ;
52 [label="gini = 0.0\nsamples = 0.0%\nvalue = [1.0, 0.0]"] ;
42 -> 52 ;
53 [label="gini = 0.0\nsamples = 0.0%\nvalue = [0.0, 1.0]"] ;
41 -> 53 ;
54 [label="V28 <= 0.321\ngini = 0.003\nsamples = 0.0%\nvalue = [0.001, 0.999]"] ;
36 -> 54 ;
55 [label="gini = 0.0\nsamples = 0.0%\nvalue = [0.0, 1.0]"] ;
54 -> 55 ;
56 [label="gini = 0.0\nsamples = 0.0%\nvalue = [1.0, 0.0]"] ;
54 -> 56 ;
57 [label="V21 <= 0.575\ngini = 0.003\nsamples = 0.0%\nvalue = [0.001, 0.999]"] ;
35 -> 57 ;
58 [label="gini = 0.0\nsamples = 0.0%\nvalue = [1.0, 0.0]"] ;
57 -> 58 ;
59 [label="gini = 0.0\nsamples = 0.0%\nvalue = [0.0, 1.0]"] ;
57 -> 59 ;
60 [label="V23 <= 0.665\ngini = 0.004\nsamples = 0.0%\nvalue = [0.002, 0.998]"] ;
34 -> 60 ;
61 [label="gini = 0.0\nsamples = 0.0%\nvalue = [1.0, 0.0]"] ;
60 -> 61 ;
62 [label="gini = 0.0\nsamples = 0.0%\nvalue = [0.0, 1.0]"] ;
60 -> 62 ;
63 [label="gini = 0.0\nsamples = 0.0%\nvalue = [1.0, 0.0]"] ;
27 -> 63 ;
64 [label="V6 <= 0.218\ngini = 0.0\nsamples = 0.1%\nvalue = [0.0, 1.0]"] ;
26 -> 64 ;
65 [label="Amount <= 0.002\ngini = 0.001\nsamples = 0.0%\nvalue = [0.0, 1.0]"] ;
64 -> 65 ;
66 [label="gini = 0.0\nsamples = 0.0%\nvalue = [1.0, 0.0]"] ;
65 -> 66 ;
67 [label="gini = 0.0\nsamples = 0.0%\nvalue = [0.0, 1.0]"] ;
65 -> 67 ;
68 [label="gini = 0.0\nsamples = 0.1%\nvalue = [0.0, 1.0]"] ;
64 -> 68 ;
69 [label="V22 <= 0.456\ngini = 0.003\nsamples = 0.0%\nvalue = [0.001, 0.999]"] ;
25 -> 69 ;
70 [label="gini = 0.0\nsamples = 0.0%\nvalue = [1.0, 0.0]"] ;
69 -> 70 ;
71 [label="V26 <= 0.384\ngini = 0.003\nsamples = 0.0%\nvalue = [0.001, 0.999]"] ;
69 -> 71 ;
72 [label="V15 <= 0.368\ngini = 0.047\nsamples = 0.0%\nvalue = [0.024, 0.976]"] ;
71 -> 72 ;
73 [label="gini = 0.0\nsamples = 0.0%\nvalue = [1.0, 0.0]"] ;
72 -> 73 ;
74 [label="gini = 0.0\nsamples = 0.0%\nvalue = [0.0, 1.0]"] ;
72 -> 74 ;
75 [label="gini = 0.0\nsamples = 0.0%\nvalue = [0.0, 1.0]"] ;
71 -> 75 ;
76 [label="V3 <= 0.867\ngini = 0.006\nsamples = 0.0%\nvalue = [0.003, 0.997]"] ;
24 -> 76 ;
77 [label="V4 <= 0.486\ngini = 0.0\nsamples = 0.0%\nvalue = [0.0, 1.0]"] ;
76 -> 77 ;
78 [label="gini = 0.0\nsamples = 0.0%\nvalue = [0.0, 1.0]"] ;
77 -> 78 ;
79 [label="gini = 0.0\nsamples = 0.0%\nvalue = [1.0, 0.0]"] ;
77 -> 79 ;
80 [label="gini = 0.0\nsamples = 0.0%\nvalue = [1.0, 0.0]"] ;
76 -> 80 ;
81 [label="V8 <= 0.742\ngini = 0.066\nsamples = 0.0%\nvalue = [0.034, 0.966]"] ;
17 -> 81 ;
82 [label="gini = 0.0\nsamples = 0.0%\nvalue = [0.0, 1.0]"] ;
81 -> 82 ;
83 [label="gini = 0.0\nsamples = 0.0%\nvalue = [1.0, 0.0]"] ;
81 -> 83 ;
84 [label="gini = 0.0\nsamples = 0.0%\nvalue = [1.0, 0.0]"] ;
16 -> 84 ;
85 [label="gini = 0.0\nsamples = 0.0%\nvalue = [1.0, 0.0]"] ;
15 -> 85 ;
86 [label="gini = 0.0\nsamples = 0.0%\nvalue = [1.0, 0.0]"] ;
10 -> 86 ;
87 [label="gini = 0.0\nsamples = 0.0%\nvalue = [1.0, 0.0]"] ;
9 -> 87 ;
88 [label="gini = 0.0\nsamples = 0.0%\nvalue = [1.0, 0.0]"] ;
8 -> 88 ;
89 [label="gini = 0.0\nsamples = 0.0%\nvalue = [1.0, 0.0]"] ;
7 -> 89 ;
90 [label="gini = 0.0\nsamples = 0.0%\nvalue = [1.0, 0.0]"] ;
6 -> 90 ;
91 [label="V26 <= 0.503\ngini = 0.33\nsamples = 2.1%\nvalue = [0.208, 0.792]"] ;
3 -> 91 ;
92 [label="V27 <= 0.241\ngini = 0.275\nsamples = 1.6%\nvalue = [0.164, 0.836]"] ;
91 -> 92 ;
93 [label="V18 <= 0.652\ngini = 0.222\nsamples = 1.2%\nvalue = [0.127, 0.873]"] ;
92 -> 93 ;
94 [label="gini = 0.0\nsamples = 0.3%\nvalue = [1.0, 0.0]"] ;
93 -> 94 ;
95 [label="V28 <= 0.309\ngini = 0.183\nsamples = 0.9%\nvalue = [0.102, 0.898]"] ;
93 -> 95 ;
96 [label="gini = 0.0\nsamples = 0.2%\nvalue = [1.0, 0.0]"] ;
95 -> 96 ;
97 [label="V15 <= 0.418\ngini = 0.157\nsamples = 0.8%\nvalue = [0.086, 0.914]"] ;
95 -> 97 ;
98 [label="V26 <= 0.34\ngini = 0.138\nsamples = 0.6%\nvalue = [0.074, 0.926]"] ;
97 -> 98 ;
99 [label="gini = 0.0\nsamples = 0.1%\nvalue = [1.0, 0.0]"] ;
98 -> 99 ;
100 [label="V24 <= 0.226\ngini = 0.124\nsamples = 0.6%\nvalue = [0.067, 0.933]"] ;
98 -> 100 ;
101 [label="gini = 0.0\nsamples = 0.1%\nvalue = [1.0, 0.0]"] ;
100 -> 101 ;
102 [label="V25 <= 0.55\ngini = 0.114\nsamples = 0.5%\nvalue = [0.06, 0.94]"] ;
100 -> 102 ;
103 [label="gini = 0.0\nsamples = 0.0%\nvalue = [1.0, 0.0]"] ;
102 -> 103 ;
104 [label="Time <= 0.229\ngini = 0.105\nsamples = 0.5%\nvalue = [0.055, 0.945]"] ;
102 -> 104 ;
105 [label="gini = 0.0\nsamples = 0.0%\nvalue = [1.0, 0.0]"] ;
104 -> 105 ;
106 [label="V21 <= 0.555\ngini = 0.097\nsamples = 0.4%\nvalue = [0.051, 0.949]"] ;
104 -> 106 ;
107 [label="gini = 0.0\nsamples = 0.0%\nvalue = [1.0, 0.0]"] ;
106 -> 107 ;
108 [label="V1 <= 0.992\ngini = 0.09\nsamples = 0.4%\nvalue = [0.047, 0.953]"] ;
106 -> 108 ;
109 [label="V8 <= 0.793\ngini = 0.064\nsamples = 0.3%\nvalue = [0.033, 0.967]"] ;
108 -> 109 ;
110 [label="V4 <= 0.229\ngini = 0.058\nsamples = 0.2%\nvalue = [0.03, 0.97]"] ;
109 -> 110 ;
111 [label="gini = 0.0\nsamples = 0.0%\nvalue = [1.0, 0.0]"] ;
110 -> 111 ;
112 [label="V11 <= 0.452\ngini = 0.053\nsamples = 0.2%\nvalue = [0.027, 0.973]"] ;
110 -> 112 ;
113 [label="V23 <= 0.659\ngini = 0.049\nsamples = 0.2%\nvalue = [0.025, 0.975]"] ;
112 -> 113 ;
114 [label="gini = 0.0\nsamples = 0.0%\nvalue = [1.0, 0.0]"] ;
113 -> 114 ;
115 [label="V22 <= 0.544\ngini = 0.045\nsamples = 0.2%\nvalue = [0.023, 0.977]"] ;
113 -> 115 ;
116 [label="V12 <= 0.668\ngini = 0.042\nsamples = 0.2%\nvalue = [0.021, 0.979]"] ;
115 -> 116 ;
117 [label="gini = 0.0\nsamples = 0.0%\nvalue = [1.0, 0.0]"] ;
116 -> 117 ;
118 [label="V28 <= 0.316\ngini = 0.039\nsamples = 0.2%\nvalue = [0.02, 0.98]"] ;
116 -> 118 ;
119 [label="V25 <= 0.617\ngini = 0.037\nsamples = 0.2%\nvalue = [0.019, 0.981]"] ;
118 -> 119 ;
120 [label="V12 <= 0.739\ngini = 0.026\nsamples = 0.1%\nvalue = [0.013, 0.987]"] ;
119 -> 120 ;
121 [label="V9 <= 0.484\ngini = 0.025\nsamples = 0.1%\nvalue = [0.013, 0.987]"] ;
120 -> 121 ;
122 [label="gini = 0.0\nsamples = 0.0%\nvalue = [1.0, 0.0]"] ;
121 -> 122 ;
123 [label="V3 <= 0.936\ngini = 0.025\nsamples = 0.1%\nvalue = [0.012, 0.988]"] ;
121 -> 123 ;
124 [label="V23 <= 0.66\ngini = 0.024\nsamples = 0.1%\nvalue = [0.012, 0.988]"] ;
123 -> 124 ;
125 [label="gini = 0.0\nsamples = 0.0%\nvalue = [1.0, 0.0]"] ;
124 -> 125 ;
126 [label="V13 <= 0.558\ngini = 0.023\nsamples = 0.1%\nvalue = [0.012, 0.988]"] ;
124 -> 126 ;
127 [label="Time <= 0.986\ngini = 0.023\nsamples = 0.1%\nvalue = [0.012, 0.988]"] ;
126 -> 127 ;
128 [label="V1 <= 0.923\ngini = 0.022\nsamples = 0.1%\nvalue = [0.011, 0.989]"] ;
127 -> 128 ;
129 [label="gini = 0.0\nsamples = 0.0%\nvalue = [1.0, 0.0]"] ;
128 -> 129 ;
130 [label="V13 <= 0.288\ngini = 0.022\nsamples = 0.1%\nvalue = [0.011, 0.989]"] ;
128 -> 130 ;
131 [label="gini = 0.0\nsamples = 0.0%\nvalue = [1.0, 0.0]"] ;
130 -> 131 ;
132 [label="V9 <= 0.647\ngini = 0.022\nsamples = 0.1%\nvalue = [0.011, 0.989]"] ;
130 -> 132 ;
133 [label="V24 <= 0.495\ngini = 0.021\nsamples = 0.1%\nvalue = [0.011, 0.989]"] ;
132 -> 133 ;
134 [label="V19 <= 0.379\ngini = 0.021\nsamples = 0.1%\nvalue = [0.011, 0.989]"] ;
133 -> 134 ;
135 [label="gini = 0.0\nsamples = 0.0%\nvalue = [1.0, 0.0]"] ;
134 -> 135 ;
136 [label="V1 <= 0.991\ngini = 0.021\nsamples = 0.1%\nvalue = [0.01, 0.99]"] ;
134 -> 136 ;
137 [label="Time <= 0.908\ngini = 0.016\nsamples = 0.1%\nvalue = [0.008, 0.992]"] ;
136 -> 137 ;
138 [label="V28 <= 0.31\ngini = 0.014\nsamples = 0.1%\nvalue = [0.007, 0.993]"] ;
137 -> 138 ;
139 [label="gini = 0.0\nsamples = 0.0%\nvalue = [1.0, 0.0]"] ;
138 -> 139 ;
140 [label="V18 <= 0.653\ngini = 0.014\nsamples = 0.1%\nvalue = [0.007, 0.993]"] ;
138 -> 140 ;
141 [label="gini = 0.0\nsamples = 0.0%\nvalue = [1.0, 0.0]"] ;
140 -> 141 ;
142 [label="V16 <= 0.528\ngini = 0.014\nsamples = 0.1%\nvalue = [0.007, 0.993]"] ;
140 -> 142 ;
143 [label="V7 <= 0.285\ngini = 0.013\nsamples = 0.1%\nvalue = [0.007, 0.993]"] ;
142 -> 143 ;
144 [label="V15 <= 0.172\ngini = 0.013\nsamples = 0.1%\nvalue = [0.007, 0.993]"] ;
143 -> 144 ;
145 [label="gini = 0.0\nsamples = 0.0%\nvalue = [1.0, 0.0]"] ;
144 -> 145 ;
146 [label="V22 <= 0.448\ngini = 0.013\nsamples = 0.1%\nvalue = [0.007, 0.993]"] ;
144 -> 146 ;
147 [label="gini = 0.0\nsamples = 0.0%\nvalue = [1.0, 0.0]"] ;
146 -> 147 ;
148 [label="V4 <= 0.338\ngini = 0.013\nsamples = 0.1%\nvalue = [0.007, 0.993]"] ;
146 -> 148 ;
149 [label="V9 <= 0.557\ngini = 0.038\nsamples = 0.0%\nvalue = [0.019, 0.981]"] ;
148 -> 149 ;
150 [label="gini = 0.0\nsamples = 0.0%\nvalue = [1.0, 0.0]"] ;
149 -> 150 ;
151 [label="V24 <= 0.435\ngini = 0.019\nsamples = 0.0%\nvalue = [0.01, 0.99]"] ;
149 -> 151 ;
152 [label="V11 <= 0.329\ngini = 0.015\nsamples = 0.0%\nvalue = [0.008, 0.992]"] ;
151 -> 152 ;
153 [label="V8 <= 0.788\ngini = 0.011\nsamples = 0.0%\nvalue = [0.006, 0.994]"] ;
152 -> 153 ;
154 [label="V13 <= 0.356\ngini = 0.009\nsamples = 0.0%\nvalue = [0.004, 0.996]"] ;
153 -> 154 ;
155 [label="gini = 0.0\nsamples = 0.0%\nvalue = [1.0, 0.0]"] ;
154 -> 155 ;
156 [label="V3 <= 0.868\ngini = 0.007\nsamples = 0.0%\nvalue = [0.004, 0.996]"] ;
154 -> 156 ;
157 [label="gini = 0.0\nsamples = 0.0%\nvalue = [1.0, 0.0]"] ;
156 -> 157 ;
158 [label="V18 <= 0.768\ngini = 0.006\nsamples = 0.0%\nvalue = [0.003, 0.997]"] ;
156 -> 158 ;
159 [label="V1 <= 0.99\ngini = 0.006\nsamples = 0.0%\nvalue = [0.003, 0.997]"] ;
158 -> 159 ;
160 [label="V1 <= 0.985\ngini = 0.005\nsamples = 0.0%\nvalue = [0.003, 0.997]"] ;
159 -> 160 ;
161 [label="Amount <= 0.011\ngini = 0.001\nsamples = 0.0%\nvalue = [0.0, 1.0]"] ;
160 -> 161 ;
162 [label="gini = 0.0\nsamples = 0.0%\nvalue = [0.0, 1.0]"] ;
161 -> 162 ;
163 [label="V25 <= 0.586\ngini = 0.003\nsamples = 0.0%\nvalue = [0.001, 0.999]"] ;
161 -> 163 ;
164 [label="gini = 0.0\nsamples = 0.0%\nvalue = [1.0, 0.0]"] ;
163 -> 164 ;
165 [label="gini = 0.0\nsamples = 0.0%\nvalue = [0.0, 1.0]"] ;
163 -> 165 ;
166 [label="V4 <= 0.275\ngini = 0.028\nsamples = 0.0%\nvalue = [0.014, 0.986]"] ;
160 -> 166 ;
167 [label="gini = 0.0\nsamples = 0.0%\nvalue = [0.0, 1.0]"] ;
166 -> 167 ;
168 [label="gini = 0.0\nsamples = 0.0%\nvalue = [1.0, 0.0]"] ;
166 -> 168 ;
169 [label="gini = 0.0\nsamples = 0.0%\nvalue = [1.0, 0.0]"] ;
159 -> 169 ;
170 [label="gini = 0.0\nsamples = 0.0%\nvalue = [1.0, 0.0]"] ;
158 -> 170 ;
171 [label="gini = 0.0\nsamples = 0.0%\nvalue = [1.0, 0.0]"] ;
153 -> 171 ;
172 [label="gini = 0.0\nsamples = 0.0%\nvalue = [1.0, 0.0]"] ;
152 -> 172 ;
173 [label="gini = 0.0\nsamples = 0.0%\nvalue = [1.0, 0.0]"] ;
151 -> 173 ;
174 [label="V22 <= 0.468\ngini = 0.004\nsamples = 0.0%\nvalue = [0.002, 0.998]"] ;
148 -> 174 ;
175 [label="gini = 0.0\nsamples = 0.0%\nvalue = [1.0, 0.0]"] ;
174 -> 175 ;
176 [label="V11 <= 0.255\ngini = 0.003\nsamples = 0.0%\nvalue = [0.001, 0.999]"] ;
174 -> 176 ;
177 [label="gini = 0.0\nsamples = 0.0%\nvalue = [1.0, 0.0]"] ;
176 -> 177 ;
178 [label="V18 <= 0.686\ngini = 0.002\nsamples = 0.0%\nvalue = [0.001, 0.999]"] ;
176 -> 178 ;
179 [label="gini = 0.0\nsamples = 0.0%\nvalue = [1.0, 0.0]"] ;
178 -> 179 ;
180 [label="Amount <= 0.001\ngini = 0.002\nsamples = 0.0%\nvalue = [0.001, 0.999]"] ;
178 -> 180 ;
181 [label="V1 <= 0.991\ngini = 0.0\nsamples = 0.0%\nvalue = [0.0, 1.0]"] ;
180 -> 181 ;
182 [label="gini = 0.0\nsamples = 0.0%\nvalue = [0.0, 1.0]"] ;
181 -> 182 ;
183 [label="V11 <= 0.307\ngini = 0.006\nsamples = 0.0%\nvalue = [0.003, 0.997]"] ;
181 -> 183 ;
184 [label="gini = 0.0\nsamples = 0.0%\nvalue = [0.0, 1.0]"] ;
183 -> 184 ;
185 [label="gini = 0.0\nsamples = 0.0%\nvalue = [1.0, 0.0]"] ;
183 -> 185 ;
186 [label="V4 <= 0.452\ngini = 0.023\nsamples = 0.0%\nvalue = [0.011, 0.989]"] ;
180 -> 186 ;
187 [label="gini = 0.0\nsamples = 0.0%\nvalue = [1.0, 0.0]"] ;
186 -> 187 ;
188 [label="gini = 0.0\nsamples = 0.0%\nvalue = [0.0, 1.0]"] ;
186 -> 188 ;
189 [label="gini = 0.0\nsamples = 0.0%\nvalue = [1.0, 0.0]"] ;
143 -> 189 ;
190 [label="gini = 0.0\nsamples = 0.0%\nvalue = [1.0, 0.0]"] ;
142 -> 190 ;
191 [label="gini = 0.0\nsamples = 0.0%\nvalue = [1.0, 0.0]"] ;
137 -> 191 ;
192 [label="Time <= 0.986\ngini = 0.114\nsamples = 0.0%\nvalue = [0.061, 0.939]"] ;
136 -> 192 ;
193 [label="gini = 0.0\nsamples = 0.0%\nvalue = [1.0, 0.0]"] ;
192 -> 193 ;
194 [label="gini = 0.0\nsamples = 0.0%\nvalue = [0.0, 1.0]"] ;
192 -> 194 ;
195 [label="gini = 0.0\nsamples = 0.0%\nvalue = [1.0, 0.0]"] ;
133 -> 195 ;
196 [label="gini = 0.0\nsamples = 0.0%\nvalue = [1.0, 0.0]"] ;
132 -> 196 ;
197 [label="gini = 0.0\nsamples = 0.0%\nvalue = [1.0, 0.0]"] ;
127 -> 197 ;
198 [label="gini = 0.0\nsamples = 0.0%\nvalue = [1.0, 0.0]"] ;
126 -> 198 ;
199 [label="gini = 0.0\nsamples = 0.0%\nvalue = [1.0, 0.0]"] ;
123 -> 199 ;
200 [label="gini = 0.0\nsamples = 0.0%\nvalue = [1.0, 0.0]"] ;
120 -> 200 ;
201 [label="Amount <= 0.012\ngini = 0.234\nsamples = 0.0%\nvalue = [0.136, 0.864]"] ;
119 -> 201 ;
202 [label="gini = 0.0\nsamples = 0.0%\nvalue = [1.0, 0.0]"] ;
201 -> 202 ;
203 [label="gini = 0.0\nsamples = 0.0%\nvalue = [0.0, 1.0]"] ;
201 -> 203 ;
204 [label="gini = 0.0\nsamples = 0.0%\nvalue = [1.0, 0.0]"] ;
118 -> 204 ;
205 [label="gini = 0.0\nsamples = 0.0%\nvalue = [1.0, 0.0]"] ;
115 -> 205 ;
206 [label="gini = 0.0\nsamples = 0.0%\nvalue = [1.0, 0.0]"] ;
112 -> 206 ;
207 [label="gini = 0.0\nsamples = 0.0%\nvalue = [1.0, 0.0]"] ;
109 -> 207 ;
208 [label="V7 <= 0.259\ngini = 0.42\nsamples = 0.1%\nvalue = [0.3, 0.7]"] ;
108 -> 208 ;
209 [label="gini = 0.0\nsamples = 0.0%\nvalue = [0.0, 1.0]"] ;
208 -> 209 ;
210 [label="gini = 0.0\nsamples = 0.1%\nvalue = [1.0, 0.0]"] ;
208 -> 210 ;
211 [label="gini = 0.0\nsamples = 0.1%\nvalue = [1.0, 0.0]"] ;
97 -> 211 ;
212 [label="gini = 0.0\nsamples = 0.4%\nvalue = [1.0, 0.0]"] ;
92 -> 212 ;
213 [label="gini = 0.0\nsamples = 0.5%\nvalue = [1.0, 0.0]"] ;
91 -> 213 ;
214 [label="V4 <= 0.325\ngini = 0.248\nsamples = 97.0%\nvalue = [0.855, 0.145]"] ;
0 -> 214 [labeldistance=2.5, labelangle=45, headlabel="False"] ;
215 [label="V7 <= 0.283\ngini = 0.14\nsamples = 89.6%\nvalue = [0.924, 0.076]"] ;
214 -> 215 ;
216 [label="V14 <= 0.624\ngini = 0.12\nsamples = 89.0%\nvalue = [0.936, 0.064]"] ;
215 -> 216 ;
217 [label="V25 <= 0.602\ngini = 0.338\nsamples = 13.3%\nvalue = [0.784, 0.216]"] ;
216 -> 217 ;
218 [label="V13 <= 0.4\ngini = 0.184\nsamples = 10.6%\nvalue = [0.897, 0.103]"] ;
217 -> 218 ;
219 [label="V9 <= 0.564\ngini = 0.463\nsamples = 2.1%\nvalue = [0.636, 0.364]"] ;
218 -> 219 ;
220 [label="V4 <= 0.237\ngini = 0.415\nsamples = 0.5%\nvalue = [0.294, 0.706]"] ;
219 -> 220 ;
221 [label="gini = -0.0\nsamples = 0.3%\nvalue = [1.0, 0.0]"] ;
220 -> 221 ;
222 [label="V9 <= 0.552\ngini = 0.224\nsamples = 0.2%\nvalue = [0.128, 0.872]"] ;
220 -> 222 ;
223 [label="gini = 0.0\nsamples = 0.1%\nvalue = [1.0, 0.0]"] ;
222 -> 223 ;
224 [label="V2 <= 0.774\ngini = 0.094\nsamples = 0.1%\nvalue = [0.049, 0.951]"] ;
222 -> 224 ;
225 [label="gini = 0.0\nsamples = 0.0%\nvalue = [1.0, 0.0]"] ;
224 -> 225 ;
226 [label="V7 <= 0.271\ngini = 0.045\nsamples = 0.0%\nvalue = [0.023, 0.977]"] ;
224 -> 226 ;
227 [label="V11 <= 0.281\ngini = 0.022\nsamples = 0.0%\nvalue = [0.011, 0.989]"] ;
226 -> 227 ;
228 [label="gini = 0.0\nsamples = 0.0%\nvalue = [1.0, 0.0]"] ;
227 -> 228 ;
229 [label="V6 <= 0.258\ngini = 0.009\nsamples = 0.0%\nvalue = [0.005, 0.995]"] ;
227 -> 229 ;
230 [label="V6 <= 0.253\ngini = 0.002\nsamples = 0.0%\nvalue = [0.001, 0.999]"] ;
229 -> 230 ;
231 [label="gini = 0.0\nsamples = 0.0%\nvalue = [1.0, 0.0]"] ;
230 -> 231 ;
232 [label="gini = 0.0\nsamples = 0.0%\nvalue = [0.0, 1.0]"] ;
230 -> 232 ;
233 [label="gini = 0.0\nsamples = 0.0%\nvalue = [1.0, 0.0]"] ;
229 -> 233 ;
234 [label="gini = 0.0\nsamples = 0.0%\nvalue = [1.0, 0.0]"] ;
226 -> 234 ;
235 [label="gini = 0.0\nsamples = 1.6%\nvalue = [1.0, 0.0]"] ;
219 -> 235 ;
236 [label="gini = -0.0\nsamples = 8.5%\nvalue = [1.0, 0.0]"] ;
218 -> 236 ;
237 [label="V25 <= 0.607\ngini = 0.499\nsamples = 2.7%\nvalue = [0.521, 0.479]"] ;
217 -> 237 ;
238 [label="V16 <= 0.453\ngini = 0.377\nsamples = 0.6%\nvalue = [0.252, 0.748]"] ;
237 -> 238 ;
239 [label="gini = -0.0\nsamples = 0.3%\nvalue = [1.0, 0.0]"] ;
238 -> 239 ;
240 [label="V21 <= 0.561\ngini = 0.242\nsamples = 0.3%\nvalue = [0.141, 0.859]"] ;
238 -> 240 ;
241 [label="V18 <= 0.675\ngini = 0.112\nsamples = 0.1%\nvalue = [0.06, 0.94]"] ;
240 -> 241 ;
242 [label="V4 <= 0.223\ngini = 0.068\nsamples = 0.1%\nvalue = [0.035, 0.965]"] ;
241 -> 242 ;
243 [label="gini = 0.0\nsamples = 0.0%\nvalue = [1.0, 0.0]"] ;
242 -> 243 ;
244 [label="Time <= 0.262\ngini = 0.042\nsamples = 0.0%\nvalue = [0.022, 0.978]"] ;
242 -> 244 ;
245 [label="gini = 0.0\nsamples = 0.0%\nvalue = [1.0, 0.0]"] ;
244 -> 245 ;
246 [label="Time <= 0.435\ngini = 0.027\nsamples = 0.0%\nvalue = [0.013, 0.987]"] ;
244 -> 246 ;
247 [label="V1 <= 0.979\ngini = 0.014\nsamples = 0.0%\nvalue = [0.007, 0.993]"] ;
246 -> 247 ;
248 [label="V11 <= 0.417\ngini = 0.01\nsamples = 0.0%\nvalue = [0.005, 0.995]"] ;
247 -> 248 ;
249 [label="V17 <= 0.765\ngini = 0.006\nsamples = 0.0%\nvalue = [0.003, 0.997]"] ;
248 -> 249 ;
250 [label="V3 <= 0.935\ngini = 0.004\nsamples = 0.0%\nvalue = [0.002, 0.998]"] ;
249 -> 250 ;
251 [label="V3 <= 0.91\ngini = 0.002\nsamples = 0.0%\nvalue = [0.001, 0.999]"] ;
250 -> 251 ;
252 [label="gini = 0.0\nsamples = 0.0%\nvalue = [1.0, 0.0]"] ;
251 -> 252 ;
253 [label="V7 <= 0.272\ngini = 0.001\nsamples = 0.0%\nvalue = [0.001, 0.999]"] ;
251 -> 253 ;
254 [label="V26 <= 0.487\ngini = 0.001\nsamples = 0.0%\nvalue = [0.0, 1.0]"] ;
253 -> 254 ;
255 [label="gini = 0.0\nsamples = 0.0%\nvalue = [0.0, 1.0]"] ;
254 -> 255 ;
256 [label="V27 <= 0.238\ngini = 0.006\nsamples = 0.0%\nvalue = [0.003, 0.997]"] ;
254 -> 256 ;
257 [label="gini = 0.0\nsamples = 0.0%\nvalue = [0.0, 1.0]"] ;
256 -> 257 ;
258 [label="gini = 0.0\nsamples = 0.0%\nvalue = [1.0, 0.0]"] ;
256 -> 258 ;
259 [label="gini = 0.0\nsamples = 0.0%\nvalue = [1.0, 0.0]"] ;
253 -> 259 ;
260 [label="gini = 0.0\nsamples = 0.0%\nvalue = [1.0, 0.0]"] ;
250 -> 260 ;
261 [label="gini = 0.0\nsamples = 0.0%\nvalue = [1.0, 0.0]"] ;
249 -> 261 ;
262 [label="gini = 0.0\nsamples = 0.0%\nvalue = [1.0, 0.0]"] ;
248 -> 262 ;
263 [label="gini = 0.0\nsamples = 0.0%\nvalue = [1.0, 0.0]"] ;
247 -> 263 ;
264 [label="gini = 0.0\nsamples = 0.0%\nvalue = [1.0, 0.0]"] ;
246 -> 264 ;
265 [label="gini = 0.0\nsamples = 0.0%\nvalue = [1.0, 0.0]"] ;
241 -> 265 ;
266 [label="gini = 0.0\nsamples = 0.2%\nvalue = [1.0, 0.0]"] ;
240 -> 266 ;
267 [label="V1 <= 0.979\ngini = 0.355\nsamples = 2.0%\nvalue = [0.769, 0.231]"] ;
237 -> 267 ;
268 [label="gini = 0.0\nsamples = 1.6%\nvalue = [1.0, 0.0]"] ;
267 -> 268 ;
269 [label="V13 <= 0.404\ngini = 0.478\nsamples = 0.4%\nvalue = [0.396, 0.604]"] ;
267 -> 269 ;
270 [label="V19 <= 0.546\ngini = 0.161\nsamples = 0.1%\nvalue = [0.089, 0.911]"] ;
269 -> 270 ;
271 [label="V21 <= 0.56\ngini = 0.051\nsamples = 0.0%\nvalue = [0.026, 0.974]"] ;
270 -> 271 ;
272 [label="gini = 0.0\nsamples = 0.0%\nvalue = [1.0, 0.0]"] ;
271 -> 272 ;
273 [label="V11 <= 0.271\ngini = 0.009\nsamples = 0.0%\nvalue = [0.004, 0.996]"] ;
271 -> 273 ;
274 [label="gini = 0.0\nsamples = 0.0%\nvalue = [0.0, 1.0]"] ;
273 -> 274 ;
275 [label="gini = 0.0\nsamples = 0.0%\nvalue = [1.0, 0.0]"] ;
273 -> 275 ;
276 [label="gini = 0.0\nsamples = 0.0%\nvalue = [1.0, 0.0]"] ;
270 -> 276 ;
277 [label="gini = -0.0\nsamples = 0.3%\nvalue = [1.0, 0.0]"] ;
269 -> 277 ;
278 [label="V20 <= 0.587\ngini = 0.06\nsamples = 75.7%\nvalue = [0.969, 0.031]"] ;
216 -> 278 ;
279 [label="V20 <= 0.575\ngini = 0.025\nsamples = 71.4%\nvalue = [0.987, 0.013]"] ;
278 -> 279 ;
280 [label="V14 <= 0.63\ngini = 0.219\nsamples = 4.3%\nvalue = [0.875, 0.125]"] ;
279 -> 280 ;
281 [label="V4 <= 0.289\ngini = 0.415\nsamples = 0.3%\nvalue = [0.294, 0.706]"] ;
280 -> 281 ;
282 [label="gini = -0.0\nsamples = 0.2%\nvalue = [1.0, 0.0]"] ;
281 -> 282 ;
283 [label="V20 <= 0.574\ngini = 0.082\nsamples = 0.0%\nvalue = [0.043, 0.957]"] ;
281 -> 283 ;
284 [label="gini = 0.0\nsamples = 0.0%\nvalue = [1.0, 0.0]"] ;
283 -> 284 ;
285 [label="V14 <= 0.629\ngini = 0.011\nsamples = 0.0%\nvalue = [0.006, 0.994]"] ;
283 -> 285 ;
286 [label="gini = 0.0\nsamples = 0.0%\nvalue = [1.0, 0.0]"] ;
285 -> 286 ;
287 [label="V1 <= 0.933\ngini = 0.003\nsamples = 0.0%\nvalue = [0.001, 0.999]"] ;
285 -> 287 ;
288 [label="gini = 0.0\nsamples = 0.0%\nvalue = [1.0, 0.0]"] ;
287 -> 288 ;
289 [label="gini = 0.0\nsamples = 0.0%\nvalue = [0.0, 1.0]"] ;
287 -> 289 ;
290 [label="gini = 0.0\nsamples = 4.0%\nvalue = [1.0, 0.0]"] ;
280 -> 290 ;
291 [label="V13 <= 0.57\ngini = 0.009\nsamples = 67.2%\nvalue = [0.995, 0.005]"] ;
279 -> 291 ;
292 [label="gini = 0.0\nsamples = 63.5%\nvalue = [1.0, 0.0]"] ;
291 -> 292 ;
293 [label="V13 <= 0.57\ngini = 0.14\nsamples = 3.7%\nvalue = [0.924, 0.076]"] ;
291 -> 293 ;
294 [label="gini = 0.0\nsamples = 0.0%\nvalue = [0.0, 1.0]"] ;
293 -> 294 ;
295 [label="gini = -0.0\nsamples = 3.7%\nvalue = [1.0, 0.0]"] ;
293 -> 295 ;
296 [label="V7 <= 0.273\ngini = 0.388\nsamples = 4.3%\nvalue = [0.736, 0.264]"] ;
278 -> 296 ;
297 [label="V19 <= 0.759\ngini = 0.145\nsamples = 3.6%\nvalue = [0.921, 0.079]"] ;
296 -> 297 ;
298 [label="gini = -0.0\nsamples = 3.5%\nvalue = [1.0, 0.0]"] ;
297 -> 298 ;
299 [label="V19 <= 0.759\ngini = 0.231\nsamples = 0.0%\nvalue = [0.133, 0.867]"] ;
297 -> 299 ;
300 [label="gini = 0.0\nsamples = 0.0%\nvalue = [0.0, 1.0]"] ;
299 -> 300 ;
301 [label="gini = 0.0\nsamples = 0.0%\nvalue = [1.0, 0.0]"] ;
299 -> 301 ;
302 [label="V7 <= 0.275\ngini = 0.464\nsamples = 0.7%\nvalue = [0.365, 0.635]"] ;
296 -> 302 ;
303 [label="V18 <= 0.664\ngini = 0.201\nsamples = 0.2%\nvalue = [0.114, 0.886]"] ;
302 -> 303 ;
304 [label="gini = 0.0\nsamples = 0.1%\nvalue = [1.0, 0.0]"] ;
303 -> 304 ;
305 [label="V4 <= 0.256\ngini = 0.098\nsamples = 0.1%\nvalue = [0.052, 0.948]"] ;
303 -> 305 ;
306 [label="gini = 0.0\nsamples = 0.0%\nvalue = [1.0, 0.0]"] ;
305 -> 306 ;
307 [label="V28 <= 0.316\ngini = 0.049\nsamples = 0.0%\nvalue = [0.025, 0.975]"] ;
305 -> 307 ;
308 [label="V25 <= 0.587\ngini = 0.018\nsamples = 0.0%\nvalue = [0.009, 0.991]"] ;
307 -> 308 ;
309 [label="V25 <= 0.56\ngini = 0.008\nsamples = 0.0%\nvalue = [0.004, 0.996]"] ;
308 -> 309 ;
310 [label="gini = 0.0\nsamples = 0.0%\nvalue = [1.0, 0.0]"] ;
309 -> 310 ;
311 [label="V3 <= 0.87\ngini = 0.004\nsamples = 0.0%\nvalue = [0.002, 0.998]"] ;
309 -> 311 ;
312 [label="gini = 0.0\nsamples = 0.0%\nvalue = [1.0, 0.0]"] ;
311 -> 312 ;
313 [label="V10 <= 0.614\ngini = 0.001\nsamples = 0.0%\nvalue = [0.001, 0.999]"] ;
311 -> 313 ;
314 [label="V8 <= 0.793\ngini = 0.001\nsamples = 0.0%\nvalue = [0.0, 1.0]"] ;
313 -> 314 ;
315 [label="gini = 0.0\nsamples = 0.0%\nvalue = [0.0, 1.0]"] ;
314 -> 315 ;
316 [label="gini = 0.0\nsamples = 0.0%\nvalue = [1.0, 0.0]"] ;
314 -> 316 ;
317 [label="gini = 0.0\nsamples = 0.0%\nvalue = [1.0, 0.0]"] ;
313 -> 317 ;
318 [label="gini = 0.0\nsamples = 0.0%\nvalue = [1.0, 0.0]"] ;
308 -> 318 ;
319 [label="gini = 0.0\nsamples = 0.0%\nvalue = [1.0, 0.0]"] ;
307 -> 319 ;
320 [label="gini = -0.0\nsamples = 0.5%\nvalue = [1.0, 0.0]"] ;
302 -> 320 ;
321 [label="V26 <= 0.371\ngini = 0.432\nsamples = 0.6%\nvalue = [0.316, 0.684]"] ;
215 -> 321 ;
322 [label="V6 <= 0.271\ngini = 0.192\nsamples = 0.1%\nvalue = [0.107, 0.893]"] ;
321 -> 322 ;
323 [label="V15 <= 0.348\ngini = 0.059\nsamples = 0.0%\nvalue = [0.03, 0.97]"] ;
322 -> 323 ;
324 [label="gini = 0.0\nsamples = 0.0%\nvalue = [1.0, 0.0]"] ;
323 -> 324 ;
325 [label="V1 <= 0.922\ngini = 0.022\nsamples = 0.0%\nvalue = [0.011, 0.989]"] ;
323 -> 325 ;
326 [label="gini = 0.0\nsamples = 0.0%\nvalue = [1.0, 0.0]"] ;
325 -> 326 ;
327 [label="V23 <= 0.673\ngini = 0.006\nsamples = 0.0%\nvalue = [0.003, 0.997]"] ;
325 -> 327 ;
328 [label="Amount <= 0.019\ngini = 0.002\nsamples = 0.0%\nvalue = [0.001, 0.999]"] ;
327 -> 328 ;
329 [label="gini = 0.0\nsamples = 0.0%\nvalue = [1.0, 0.0]"] ;
328 -> 329 ;
330 [label="gini = 0.0\nsamples = 0.0%\nvalue = [0.0, 1.0]"] ;
328 -> 330 ;
331 [label="gini = 0.0\nsamples = 0.0%\nvalue = [1.0, 0.0]"] ;
327 -> 331 ;
332 [label="gini = 0.0\nsamples = 0.1%\nvalue = [1.0, 0.0]"] ;
322 -> 332 ;
333 [label="gini = 0.0\nsamples = 0.4%\nvalue = [1.0, 0.0]"] ;
321 -> 333 ;
334 [label="V8 <= 0.788\ngini = 0.494\nsamples = 7.4%\nvalue = [0.447, 0.553]"] ;
214 -> 334 ;
335 [label="V12 <= 0.695\ngini = 0.356\nsamples = 2.1%\nvalue = [0.231, 0.769]"] ;
334 -> 335 ;
336 [label="V3 <= 0.942\ngini = 0.245\nsamples = 1.0%\nvalue = [0.143, 0.857]"] ;
335 -> 336 ;
337 [label="V14 <= 0.699\ngini = 0.187\nsamples = 0.7%\nvalue = [0.104, 0.896]"] ;
336 -> 337 ;
338 [label="V25 <= 0.609\ngini = 0.159\nsamples = 0.6%\nvalue = [0.087, 0.913]"] ;
337 -> 338 ;
339 [label="V11 <= 0.178\ngini = 0.137\nsamples = 0.5%\nvalue = [0.074, 0.926]"] ;
338 -> 339 ;
340 [label="gini = 0.0\nsamples = 0.1%\nvalue = [1.0, 0.0]"] ;
339 -> 340 ;
341 [label="Time <= 0.907\ngini = 0.122\nsamples = 0.4%\nvalue = [0.065, 0.935]"] ;
339 -> 341 ;
342 [label="Amount <= 0.032\ngini = 0.11\nsamples = 0.4%\nvalue = [0.058, 0.942]"] ;
341 -> 342 ;
343 [label="V1 <= 0.991\ngini = 0.099\nsamples = 0.3%\nvalue = [0.052, 0.948]"] ;
342 -> 343 ;
344 [label="V9 <= 0.602\ngini = 0.089\nsamples = 0.3%\nvalue = [0.047, 0.953]"] ;
343 -> 344 ;
345 [label="V13 <= 0.633\ngini = 0.083\nsamples = 0.3%\nvalue = [0.043, 0.957]"] ;
344 -> 345 ;
346 [label="V11 <= 0.254\ngini = 0.077\nsamples = 0.3%\nvalue = [0.04, 0.96]"] ;
345 -> 346 ;
347 [label="V14 <= 0.655\ngini = 0.211\nsamples = 0.2%\nvalue = [0.12, 0.88]"] ;
346 -> 347 ;
348 [label="V4 <= 0.378\ngini = 0.099\nsamples = 0.1%\nvalue = [0.052, 0.948]"] ;
347 -> 348 ;
349 [label="V16 <= 0.463\ngini = 0.051\nsamples = 0.0%\nvalue = [0.026, 0.974]"] ;
348 -> 349 ;
350 [label="V8 <= 0.785\ngini = 0.023\nsamples = 0.0%\nvalue = [0.011, 0.989]"] ;
349 -> 350 ;
351 [label="gini = 0.0\nsamples = 0.0%\nvalue = [1.0, 0.0]"] ;
350 -> 351 ;
352 [label="V22 <= 0.527\ngini = 0.008\nsamples = 0.0%\nvalue = [0.004, 0.996]"] ;
350 -> 352 ;
353 [label="gini = 0.0\nsamples = 0.0%\nvalue = [1.0, 0.0]"] ;
352 -> 353 ;
354 [label="V18 <= 0.671\ngini = 0.002\nsamples = 0.0%\nvalue = [0.001, 0.999]"] ;
352 -> 354 ;
355 [label="gini = 0.0\nsamples = 0.0%\nvalue = [0.0, 1.0]"] ;
354 -> 355 ;
356 [label="gini = 0.0\nsamples = 0.0%\nvalue = [1.0, 0.0]"] ;
354 -> 356 ;
357 [label="gini = 0.0\nsamples = 0.0%\nvalue = [1.0, 0.0]"] ;
349 -> 357 ;
358 [label="gini = 0.0\nsamples = 0.0%\nvalue = [1.0, 0.0]"] ;
348 -> 358 ;
359 [label="gini = 0.0\nsamples = 0.1%\nvalue = [1.0, 0.0]"] ;
347 -> 359 ;
360 [label="Time <= 0.806\ngini = 0.033\nsamples = 0.1%\nvalue = [0.017, 0.983]"] ;
346 -> 360 ;
361 [label="V10 <= 0.721\ngini = 0.028\nsamples = 0.1%\nvalue = [0.014, 0.986]"] ;
360 -> 361 ;
362 [label="V12 <= 0.694\ngini = 0.026\nsamples = 0.1%\nvalue = [0.013, 0.987]"] ;
361 -> 362 ;
363 [label="V24 <= 0.279\ngini = 0.024\nsamples = 0.1%\nvalue = [0.012, 0.988]"] ;
362 -> 363 ;
364 [label="gini = 0.0\nsamples = 0.0%\nvalue = [1.0, 0.0]"] ;
363 -> 364 ;
365 [label="V17 <= 0.809\ngini = 0.022\nsamples = 0.1%\nvalue = [0.011, 0.989]"] ;
363 -> 365 ;
366 [label="V22 <= 0.448\ngini = 0.021\nsamples = 0.1%\nvalue = [0.011, 0.989]"] ;
365 -> 366 ;
367 [label="gini = 0.0\nsamples = 0.0%\nvalue = [1.0, 0.0]"] ;
366 -> 367 ;
368 [label="V19 <= 0.393\ngini = 0.02\nsamples = 0.1%\nvalue = [0.01, 0.99]"] ;
366 -> 368 ;
369 [label="gini = 0.0\nsamples = 0.0%\nvalue = [1.0, 0.0]"] ;
368 -> 369 ;
370 [label="V15 <= 0.482\ngini = 0.019\nsamples = 0.1%\nvalue = [0.01, 0.99]"] ;
368 -> 370 ;
371 [label="V6 <= 0.239\ngini = 0.018\nsamples = 0.0%\nvalue = [0.009, 0.991]"] ;
370 -> 371 ;
372 [label="gini = 0.0\nsamples = 0.0%\nvalue = [1.0, 0.0]"] ;
371 -> 372 ;
373 [label="V3 <= 0.924\ngini = 0.018\nsamples = 0.0%\nvalue = [0.009, 0.991]"] ;
371 -> 373 ;
374 [label="V15 <= 0.439\ngini = 0.009\nsamples = 0.0%\nvalue = [0.005, 0.995]"] ;
373 -> 374 ;
375 [label="V8 <= 0.788\ngini = 0.007\nsamples = 0.0%\nvalue = [0.004, 0.996]"] ;
374 -> 375 ;
376 [label="V23 <= 0.652\ngini = 0.007\nsamples = 0.0%\nvalue = [0.003, 0.997]"] ;
375 -> 376 ;
377 [label="gini = 0.0\nsamples = 0.0%\nvalue = [1.0, 0.0]"] ;
376 -> 377 ;
378 [label="V14 <= 0.603\ngini = 0.007\nsamples = 0.0%\nvalue = [0.003, 0.997]"] ;
376 -> 378 ;
379 [label="gini = 0.0\nsamples = 0.0%\nvalue = [1.0, 0.0]"] ;
378 -> 379 ;
380 [label="V24 <= 0.53\ngini = 0.006\nsamples = 0.0%\nvalue = [0.003, 0.997]"] ;
378 -> 380 ;
381 [label="V12 <= 0.674\ngini = 0.006\nsamples = 0.0%\nvalue = [0.003, 0.997]"] ;
380 -> 381 ;
382 [label="V26 <= 0.441\ngini = 0.002\nsamples = 0.0%\nvalue = [0.001, 0.999]"] ;
381 -> 382 ;
383 [label="V10 <= 0.667\ngini = 0.001\nsamples = 0.0%\nvalue = [0.001, 0.999]"] ;
382 -> 383 ;
384 [label="Time <= 0.664\ngini = 0.001\nsamples = 0.0%\nvalue = [0.0, 1.0]"] ;
383 -> 384 ;
385 [label="V21 <= 0.561\ngini = 0.001\nsamples = 0.0%\nvalue = [0.0, 1.0]"] ;
384 -> 385 ;
386 [label="gini = 0.0\nsamples = 0.0%\nvalue = [0.0, 1.0]"] ;
385 -> 386 ;
387 [label="V7 <= 0.26\ngini = 0.006\nsamples = 0.0%\nvalue = [0.003, 0.997]"] ;
385 -> 387 ;
388 [label="gini = 0.0\nsamples = 0.0%\nvalue = [0.0, 1.0]"] ;
387 -> 388 ;
389 [label="gini = 0.0\nsamples = 0.0%\nvalue = [1.0, 0.0]"] ;
387 -> 389 ;
390 [label="gini = 0.0\nsamples = 0.0%\nvalue = [1.0, 0.0]"] ;
384 -> 390 ;
391 [label="gini = 0.0\nsamples = 0.0%\nvalue = [1.0, 0.0]"] ;
383 -> 391 ;
392 [label="gini = 0.0\nsamples = 0.0%\nvalue = [1.0, 0.0]"] ;
382 -> 392 ;
393 [label="V16 <= 0.425\ngini = 0.027\nsamples = 0.0%\nvalue = [0.013, 0.987]"] ;
381 -> 393 ;
394 [label="gini = 0.0\nsamples = 0.0%\nvalue = [0.0, 1.0]"] ;
393 -> 394 ;
395 [label="gini = 0.0\nsamples = 0.0%\nvalue = [1.0, 0.0]"] ;
393 -> 395 ;
396 [label="gini = 0.0\nsamples = 0.0%\nvalue = [1.0, 0.0]"] ;
380 -> 396 ;
397 [label="gini = 0.0\nsamples = 0.0%\nvalue = [1.0, 0.0]"] ;
375 -> 397 ;
398 [label="gini = 0.0\nsamples = 0.0%\nvalue = [1.0, 0.0]"] ;
374 -> 398 ;
399 [label="V1 <= 0.913\ngini = 0.073\nsamples = 0.0%\nvalue = [0.038, 0.962]"] ;
373 -> 399 ;
400 [label="gini = 0.0\nsamples = 0.0%\nvalue = [0.0, 1.0]"] ;
399 -> 400 ;
401 [label="gini = 0.0\nsamples = 0.0%\nvalue = [1.0, 0.0]"] ;
399 -> 401 ;
402 [label="gini = 0.0\nsamples = 0.0%\nvalue = [1.0, 0.0]"] ;
370 -> 402 ;
403 [label="gini = 0.0\nsamples = 0.0%\nvalue = [1.0, 0.0]"] ;
365 -> 403 ;
404 [label="gini = 0.0\nsamples = 0.0%\nvalue = [1.0, 0.0]"] ;
362 -> 404 ;
405 [label="gini = 0.0\nsamples = 0.0%\nvalue = [1.0, 0.0]"] ;
361 -> 405 ;
406 [label="gini = 0.0\nsamples = 0.0%\nvalue = [1.0, 0.0]"] ;
360 -> 406 ;
407 [label="gini = 0.0\nsamples = 0.0%\nvalue = [1.0, 0.0]"] ;
345 -> 407 ;
408 [label="gini = 0.0\nsamples = 0.0%\nvalue = [1.0, 0.0]"] ;
344 -> 408 ;
409 [label="gini = 0.0\nsamples = 0.0%\nvalue = [1.0, 0.0]"] ;
343 -> 409 ;
410 [label="gini = 0.0\nsamples = 0.0%\nvalue = [1.0, 0.0]"] ;
342 -> 410 ;
411 [label="gini = 0.0\nsamples = 0.0%\nvalue = [1.0, 0.0]"] ;
341 -> 411 ;
412 [label="gini = 0.0\nsamples = 0.1%\nvalue = [1.0, 0.0]"] ;
338 -> 412 ;
413 [label="gini = 0.0\nsamples = 0.1%\nvalue = [1.0, 0.0]"] ;
337 -> 413 ;
414 [label="gini = 0.0\nsamples = 0.3%\nvalue = [1.0, 0.0]"] ;
336 -> 414 ;
415 [label="V22 <= 0.546\ngini = 0.5\nsamples = 1.1%\nvalue = [0.485, 0.515]"] ;
335 -> 415 ;
416 [label="gini = 0.0\nsamples = 0.9%\nvalue = [1.0, 0.0]"] ;
415 -> 416 ;
417 [label="V12 <= 0.721\ngini = 0.256\nsamples = 0.2%\nvalue = [0.15, 0.85]"] ;
415 -> 417 ;
418 [label="gini = -0.0\nsamples = 0.1%\nvalue = [1.0, 0.0]"] ;
417 -> 418 ;
419 [label="V24 <= 0.401\ngini = 0.111\nsamples = 0.1%\nvalue = [0.059, 0.941]"] ;
417 -> 419 ;
420 [label="gini = 0.0\nsamples = 0.0%\nvalue = [1.0, 0.0]"] ;
419 -> 420 ;
421 [label="V18 <= 0.658\ngini = 0.054\nsamples = 0.0%\nvalue = [0.028, 0.972]"] ;
419 -> 421 ;
422 [label="gini = 0.0\nsamples = 0.0%\nvalue = [1.0, 0.0]"] ;
421 -> 422 ;
423 [label="V4 <= 0.359\ngini = 0.022\nsamples = 0.0%\nvalue = [0.011, 0.989]"] ;
421 -> 423 ;
424 [label="gini = 0.0\nsamples = 0.0%\nvalue = [1.0, 0.0]"] ;
423 -> 424 ;
425 [label="V6 <= 0.284\ngini = 0.008\nsamples = 0.0%\nvalue = [0.004, 0.996]"] ;
423 -> 425 ;
426 [label="V10 <= 0.653\ngini = 0.002\nsamples = 0.0%\nvalue = [0.001, 0.999]"] ;
425 -> 426 ;
427 [label="V9 <= 0.587\ngini = 0.001\nsamples = 0.0%\nvalue = [0.0, 1.0]"] ;
426 -> 427 ;
428 [label="gini = 0.0\nsamples = 0.0%\nvalue = [0.0, 1.0]"] ;
427 -> 428 ;
429 [label="gini = 0.0\nsamples = 0.0%\nvalue = [1.0, 0.0]"] ;
427 -> 429 ;
430 [label="gini = 0.0\nsamples = 0.0%\nvalue = [1.0, 0.0]"] ;
426 -> 430 ;
431 [label="gini = 0.0\nsamples = 0.0%\nvalue = [1.0, 0.0]"] ;
425 -> 431 ;
432 [label="V11 <= 0.31\ngini = 0.41\nsamples = 5.3%\nvalue = [0.712, 0.288]"] ;
334 -> 432 ;
433 [label="V4 <= 0.558\ngini = 0.131\nsamples = 4.0%\nvalue = [0.93, 0.07]"] ;
432 -> 433 ;
434 [label="gini = -0.0\nsamples = 4.0%\nvalue = [1.0, 0.0]"] ;
433 -> 434 ;
435 [label="V1 <= 0.849\ngini = 0.067\nsamples = 0.0%\nvalue = [0.035, 0.965]"] ;
433 -> 435 ;
436 [label="gini = 0.0\nsamples = 0.0%\nvalue = [1.0, 0.0]"] ;
435 -> 436 ;
437 [label="gini = 0.0\nsamples = 0.0%\nvalue = [0.0, 1.0]"] ;
435 -> 437 ;
438 [label="V20 <= 0.579\ngini = 0.483\nsamples = 1.3%\nvalue = [0.409, 0.591]"] ;
432 -> 438 ;
439 [label="V27 <= 0.239\ngini = 0.305\nsamples = 0.4%\nvalue = [0.187, 0.813]"] ;
438 -> 439 ;
440 [label="V10 <= 0.639\ngini = 0.198\nsamples = 0.2%\nvalue = [0.111, 0.889]"] ;
439 -> 440 ;
441 [label="V26 <= 0.403\ngini = 0.133\nsamples = 0.1%\nvalue = [0.072, 0.928]"] ;
440 -> 441 ;
442 [label="gini = 0.0\nsamples = 0.0%\nvalue = [1.0, 0.0]"] ;
441 -> 442 ;
443 [label="V25 <= 0.599\ngini = 0.091\nsamples = 0.1%\nvalue = [0.048, 0.952]"] ;
441 -> 443 ;
444 [label="V14 <= 0.697\ngini = 0.054\nsamples = 0.1%\nvalue = [0.028, 0.972]"] ;
443 -> 444 ;
445 [label="V23 <= 0.665\ngini = 0.042\nsamples = 0.0%\nvalue = [0.021, 0.979]"] ;
444 -> 445 ;
446 [label="gini = 0.0\nsamples = 0.0%\nvalue = [1.0, 0.0]"] ;
445 -> 446 ;
447 [label="V25 <= 0.555\ngini = 0.032\nsamples = 0.0%\nvalue = [0.017, 0.983]"] ;
445 -> 447 ;
448 [label="gini = 0.0\nsamples = 0.0%\nvalue = [1.0, 0.0]"] ;
447 -> 448 ;
449 [label="V24 <= 0.428\ngini = 0.027\nsamples = 0.0%\nvalue = [0.014, 0.986]"] ;
447 -> 449 ;
450 [label="V2 <= 0.768\ngini = 0.022\nsamples = 0.0%\nvalue = [0.011, 0.989]"] ;
449 -> 450 ;
451 [label="gini = 0.0\nsamples = 0.0%\nvalue = [1.0, 0.0]"] ;
450 -> 451 ;
452 [label="Time <= 0.089\ngini = 0.019\nsamples = 0.0%\nvalue = [0.01, 0.99]"] ;
450 -> 452 ;
453 [label="gini = 0.0\nsamples = 0.0%\nvalue = [1.0, 0.0]"] ;
452 -> 453 ;
454 [label="V7 <= 0.267\ngini = 0.017\nsamples = 0.0%\nvalue = [0.008, 0.992]"] ;
452 -> 454 ;
455 [label="V15 <= 0.372\ngini = 0.015\nsamples = 0.0%\nvalue = [0.008, 0.992]"] ;
454 -> 455 ;
456 [label="V4 <= 0.432\ngini = 0.014\nsamples = 0.0%\nvalue = [0.007, 0.993]"] ;
455 -> 456 ;
457 [label="V24 <= 0.244\ngini = 0.014\nsamples = 0.0%\nvalue = [0.007, 0.993]"] ;
456 -> 457 ;
458 [label="gini = 0.0\nsamples = 0.0%\nvalue = [1.0, 0.0]"] ;
457 -> 458 ;
459 [label="V13 <= 0.258\ngini = 0.013\nsamples = 0.0%\nvalue = [0.007, 0.993]"] ;
457 -> 459 ;
460 [label="gini = 0.0\nsamples = 0.0%\nvalue = [1.0, 0.0]"] ;
459 -> 460 ;
461 [label="V19 <= 0.586\ngini = 0.013\nsamples = 0.0%\nvalue = [0.006, 0.994]"] ;
459 -> 461 ;
462 [label="V12 <= 0.676\ngini = 0.012\nsamples = 0.0%\nvalue = [0.006, 0.994]"] ;
461 -> 462 ;
463 [label="gini = 0.0\nsamples = 0.0%\nvalue = [0.0, 1.0]"] ;
462 -> 463 ;
464 [label="V21 <= 0.559\ngini = 0.07\nsamples = 0.0%\nvalue = [0.036, 0.964]"] ;
462 -> 464 ;
465 [label="gini = 0.0\nsamples = 0.0%\nvalue = [0.0, 1.0]"] ;
464 -> 465 ;
466 [label="gini = 0.0\nsamples = 0.0%\nvalue = [1.0, 0.0]"] ;
464 -> 466 ;
467 [label="gini = 0.0\nsamples = 0.0%\nvalue = [1.0, 0.0]"] ;
461 -> 467 ;
468 [label="gini = 0.0\nsamples = 0.0%\nvalue = [1.0, 0.0]"] ;
456 -> 468 ;
469 [label="gini = 0.0\nsamples = 0.0%\nvalue = [1.0, 0.0]"] ;
455 -> 469 ;
470 [label="gini = 0.0\nsamples = 0.0%\nvalue = [1.0, 0.0]"] ;
454 -> 470 ;
471 [label="gini = 0.0\nsamples = 0.0%\nvalue = [1.0, 0.0]"] ;
449 -> 471 ;
472 [label="gini = 0.0\nsamples = 0.0%\nvalue = [1.0, 0.0]"] ;
444 -> 472 ;
473 [label="gini = 0.0\nsamples = 0.0%\nvalue = [1.0, 0.0]"] ;
443 -> 473 ;
474 [label="gini = 0.0\nsamples = 0.1%\nvalue = [1.0, 0.0]"] ;
440 -> 474 ;
475 [label="gini = 0.0\nsamples = 0.2%\nvalue = [1.0, 0.0]"] ;
439 -> 475 ;
476 [label="gini = -0.0\nsamples = 0.8%\nvalue = [1.0, 0.0]"] ;
438 -> 476 ;
}
