digraph Tree {
node [shape=box] ;
rankdir=LR ;
0 [label="V14 <= 0.583\ngini = 0.495\nsamples = 100.0%\nvalue = [0.451, 0.549]"] ;
1 [label="V4 <= 0.224\ngini = 0.048\nsamples = 2.8%\nvalue = [0.024, 0.976]"] ;
0 -> 1 [labeldistance=2.5, labelangle=-45, headlabel="True"] ;
2 [label="gini = 0.0\nsamples = 0.7%\nvalue = [1.0, 0.0]"] ;
1 -> 2 ;
3 [label="V1 <= 0.992\ngini = 0.035\nsamples = 2.1%\nvalue = [0.018, 0.982]"] ;
1 -> 3 ;
4 [label="V10 <= 0.531\ngini = 0.028\nsamples = 1.7%\nvalue = [0.014, 0.986]"] ;
3 -> 4 ;
5 [label="V14 <= 0.531\ngini = 0.024\nsamples = 1.4%\nvalue = [0.012, 0.988]"] ;
4 -> 5 ;
6 [label="V12 <= 0.716\ngini = 0.004\nsamples = 0.3%\nvalue = [0.002, 0.998]"] ;
5 -> 6 ;
7 [label="V16 <= 0.541\ngini = 0.003\nsamples = 0.3%\nvalue = [0.002, 0.998]"] ;
6 -> 7 ;
8 [label="V12 <= 0.649\ngini = 0.003\nsamples = 0.3%\nvalue = [0.002, 0.998]"] ;
7 -> 8 ;
9 [label="V17 <= 0.935\ngini = 0.001\nsamples = 0.2%\nvalue = [0.0, 1.0]"] ;
8 -> 9 ;
10 [label="V2 <= 0.946\ngini = 0.0\nsamples = 0.2%\nvalue = [0.0, 1.0]"] ;
9 -> 10 ;
11 [label="V11 <= 0.237\ngini = 0.0\nsamples = 0.2%\nvalue = [0.0, 1.0]"] ;
10 -> 11 ;
12 [label="gini = 0.0\nsamples = 0.0%\nvalue = [1.0, 0.0]"] ;
11 -> 12 ;
13 [label="V24 <= 0.108\ngini = 0.0\nsamples = 0.2%\nvalue = [0.0, 1.0]"] ;
11 -> 13 ;
14 [label="gini = 0.0\nsamples = 0.0%\nvalue = [1.0, 0.0]"] ;
13 -> 14 ;
15 [label="V13 <= 0.217\ngini = 0.0\nsamples = 0.2%\nvalue = [0.0, 1.0]"] ;
13 -> 15 ;
16 [label="gini = 0.0\nsamples = 0.0%\nvalue = [1.0, 0.0]"] ;
15 -> 16 ;
17 [label="V12 <= 0.631\ngini = 0.0\nsamples = 0.2%\nvalue = [0.0, 1.0]"] ;
15 -> 17 ;
18 [label="V16 <= 0.528\ngini = 0.0\nsamples = 0.2%\nvalue = [0.0, 1.0]"] ;
17 -> 18 ;
19 [label="V27 <= 0.448\ngini = 0.0\nsamples = 0.2%\nvalue = [0.0, 1.0]"] ;
18 -> 19 ;
20 [label="V1 <= 0.984\ngini = 0.0\nsamples = 0.1%\nvalue = [0.0, 1.0]"] ;
19 -> 20 ;
21 [label="V4 <= 0.436\ngini = 0.0\nsamples = 0.1%\nvalue = [0.0, 1.0]"] ;
20 -> 21 ;
22 [label="V4 <= 0.435\ngini = 0.0\nsamples = 0.1%\nvalue = [0.0, 1.0]"] ;
21 -> 22 ;
23 [label="V25 <= 0.689\ngini = 0.0\nsamples = 0.1%\nvalue = [0.0, 1.0]"] ;
22 -> 23 ;
24 [label="V10 <= 0.371\ngini = 0.0\nsamples = 0.1%\nvalue = [0.0, 1.0]"] ;
23 -> 24 ;
25 [label="V26 <= 0.411\ngini = 0.003\nsamples = 0.0%\nvalue = [0.001, 0.999]"] ;
24 -> 25 ;
26 [label="gini = 0.0\nsamples = 0.0%\nvalue = [1.0, 0.0]"] ;
25 -> 26 ;
27 [label="gini = 0.0\nsamples = 0.0%\nvalue = [0.0, 1.0]"] ;
25 -> 27 ;
28 [label="V22 <= 0.56\ngini = 0.0\nsamples = 0.1%\nvalue = [0.0, 1.0]"] ;
24 -> 28 ;
29 [label="V13 <= 0.572\ngini = 0.0\nsamples = 0.1%\nvalue = [0.0, 1.0]"] ;
28 -> 29 ;
30 [label="V17 <= 0.393\ngini = 0.0\nsamples = 0.1%\nvalue = [0.0, 1.0]"] ;
29 -> 30 ;
31 [label="V15 <= 0.345\ngini = 0.001\nsamples = 0.0%\nvalue = [0.001, 0.999]"] ;
30 -> 31 ;
32 [label="gini = 0.0\nsamples = 0.0%\nvalue = [0.0, 1.0]"] ;
31 -> 32 ;
33 [label="gini = 0.0\nsamples = 0.0%\nvalue = [1.0, 0.0]"] ;
31 -> 33 ;
34 [label="V11 <= 0.351\ngini = 0.0\nsamples = 0.1%\nvalue = [0.0, 1.0]"] ;
30 -> 34 ;
35 [label="Time <= 0.257\ngini = 0.001\nsamples = 0.0%\nvalue = [0.001, 0.999]"] ;
34 -> 35 ;
36 [label="gini = 0.0\nsamples = 0.0%\nvalue = [1.0, 0.0]"] ;
35 -> 36 ;
37 [label="gini = 0.0\nsamples = 0.0%\nvalue = [0.0, 1.0]"] ;
35 -> 37 ;
38 [label="V18 <= 0.691\ngini = 0.0\nsamples = 0.0%\nvalue = [0.0, 1.0]"] ;
34 -> 38 ;
39 [label="V26 <= 0.563\ngini = 0.0\nsamples = 0.0%\nvalue = [0.0, 1.0]"] ;
38 -> 39 ;
40 [label="gini = 0.0\nsamples = 0.0%\nvalue = [0.0, 1.0]"] ;
39 -> 40 ;
41 [label="V27 <= 0.426\ngini = 0.001\nsamples = 0.0%\nvalue = [0.0, 1.0]"] ;
39 -> 41 ;
42 [label="gini = 0.0\nsamples = 0.0%\nvalue = [0.0, 1.0]"] ;
41 -> 42 ;
43 [label="gini = 0.0\nsamples = 0.0%\nvalue = [1.0, 0.0]"] ;
41 -> 43 ;
44 [label="V25 <= 0.601\ngini = 0.001\nsamples = 0.0%\nvalue = [0.0, 1.0]"] ;
38 -> 44 ;
45 [label="gini = 0.0\nsamples = 0.0%\nvalue = [1.0, 0.0]"] ;
44 -> 45 ;
46 [label="gini = 0.0\nsamples = 0.0%\nvalue = [0.0, 1.0]"] ;
44 -> 46 ;
47 [label="V19 <= 0.587\ngini = 0.003\nsamples = 0.0%\nvalue = [0.001, 0.999]"] ;
29 -> 47 ;
48 [label="gini = 0.0\nsamples = 0.0%\nvalue = [1.0, 0.0]"] ;
47 -> 48 ;
49 [label="gini = 0.0\nsamples = 0.0%\nvalue = [0.0, 1.0]"] ;
47 -> 49 ;
50 [label="V5 <= 0.75\ngini = 0.002\nsamples = 0.0%\nvalue = [0.001, 0.999]"] ;
28 -> 50 ;
51 [label="gini = 0.0\nsamples = 0.0%\nvalue = [1.0, 0.0]"] ;
50 -> 51 ;
52 [label="gini = 0.0\nsamples = 0.0%\nvalue = [0.0, 1.0]"] ;
50 -> 52 ;
53 [label="Amount <= 0.0\ngini = 0.006\nsamples = 0.0%\nvalue = [0.003, 0.997]"] ;
23 -> 53 ;
54 [label="gini = 0.0\nsamples = 0.0%\nvalue = [0.0, 1.0]"] ;
53 -> 54 ;
55 [label="gini = 0.0\nsamples = 0.0%\nvalue = [1.0, 0.0]"] ;
53 -> 55 ;
56 [label="gini = 0.0\nsamples = 0.0%\nvalue = [1.0, 0.0]"] ;
22 -> 56 ;
57 [label="gini = 0.0\nsamples = 0.1%\nvalue = [0.0, 1.0]"] ;
21 -> 57 ;
58 [label="V28 <= 0.315\ngini = 0.006\nsamples = 0.0%\nvalue = [0.003, 0.997]"] ;
20 -> 58 ;
59 [label="gini = 0.0\nsamples = 0.0%\nvalue = [1.0, 0.0]"] ;
58 -> 59 ;
60 [label="gini = 0.0\nsamples = 0.0%\nvalue = [0.0, 1.0]"] ;
58 -> 60 ;
61 [label="V8 <= 0.83\ngini = 0.003\nsamples = 0.0%\nvalue = [0.001, 0.999]"] ;
19 -> 61 ;
62 [label="V26 <= 0.4\ngini = 0.001\nsamples = 0.0%\nvalue = [0.0, 1.0]"] ;
61 -> 62 ;
63 [label="V22 <= 0.501\ngini = 0.007\nsamples = 0.0%\nvalue = [0.004, 0.996]"] ;
62 -> 63 ;
64 [label="gini = 0.0\nsamples = 0.0%\nvalue = [1.0, 0.0]"] ;
63 -> 64 ;
65 [label="gini = 0.0\nsamples = 0.0%\nvalue = [0.0, 1.0]"] ;
63 -> 65 ;
66 [label="gini = 0.0\nsamples = 0.0%\nvalue = [0.0, 1.0]"] ;
62 -> 66 ;
67 [label="gini = 0.0\nsamples = 0.0%\nvalue = [1.0, 0.0]"] ;
61 -> 67 ;
68 [label="gini = 0.0\nsamples = 0.0%\nvalue = [1.0, 0.0]"] ;
18 -> 68 ;
69 [label="V15 <= 0.323\ngini = 0.007\nsamples = 0.0%\nvalue = [0.004, 0.996]"] ;
17 -> 69 ;
70 [label="V27 <= 0.407\ngini = 0.001\nsamples = 0.0%\nvalue = [0.0, 1.0]"] ;
69 -> 70 ;
71 [label="gini = 0.0\nsamples = 0.0%\nvalue = [1.0, 0.0]"] ;
70 -> 71 ;
72 [label="gini = 0.0\nsamples = 0.0%\nvalue = [0.0, 1.0]"] ;
70 -> 72 ;
73 [label="gini = 0.0\nsamples = 0.0%\nvalue = [1.0, 0.0]"] ;
69 -> 73 ;
74 [label="gini = 0.0\nsamples = 0.0%\nvalue = [1.0, 0.0]"] ;
10 -> 74 ;
75 [label="gini = 0.0\nsamples = 0.0%\nvalue = [1.0, 0.0]"] ;
9 -> 75 ;
76 [label="V15 <= 0.386\ngini = 0.062\nsamples = 0.1%\nvalue = [0.032, 0.968]"] ;
8 -> 76 ;
77 [label="V7 <= 0.272\ngini = 0.025\nsamples = 0.1%\nvalue = [0.013, 0.987]"] ;
76 -> 77 ;
78 [label="V28 <= 0.312\ngini = 0.013\nsamples = 0.0%\nvalue = [0.007, 0.993]"] ;
77 -> 78 ;
79 [label="gini = 0.0\nsamples = 0.0%\nvalue = [1.0, 0.0]"] ;
78 -> 79 ;
80 [label="Amount <= 0.0\ngini = 0.009\nsamples = 0.0%\nvalue = [0.005, 0.995]"] ;
78 -> 80 ;
81 [label="V24 <= 0.215\ngini = 0.006\nsamples = 0.0%\nvalue = [0.003, 0.997]"] ;
80 -> 81 ;
82 [label="gini = 0.0\nsamples = 0.0%\nvalue = [1.0, 0.0]"] ;
81 -> 82 ;
83 [label="V12 <= 0.668\ngini = 0.004\nsamples = 0.0%\nvalue = [0.002, 0.998]"] ;
81 -> 83 ;
84 [label="gini = 0.0\nsamples = 0.0%\nvalue = [1.0, 0.0]"] ;
83 -> 84 ;
85 [label="V27 <= 0.424\ngini = 0.003\nsamples = 0.0%\nvalue = [0.002, 0.998]"] ;
83 -> 85 ;
86 [label="Time <= 0.91\ngini = 0.002\nsamples = 0.0%\nvalue = [0.001, 0.999]"] ;
85 -> 86 ;
87 [label="V14 <= 0.529\ngini = 0.001\nsamples = 0.0%\nvalue = [0.001, 0.999]"] ;
86 -> 87 ;
88 [label="V16 <= 0.513\ngini = 0.001\nsamples = 0.0%\nvalue = [0.0, 1.0]"] ;
87 -> 88 ;
89 [label="Time <= 0.34\ngini = 0.0\nsamples = 0.0%\nvalue = [0.0, 1.0]"] ;
88 -> 89 ;
90 [label="V5 <= 0.773\ngini = 0.006\nsamples = 0.0%\nvalue = [0.003, 0.997]"] ;
89 -> 90 ;
91 [label="gini = 0.0\nsamples = 0.0%\nvalue = [0.0, 1.0]"] ;
90 -> 91 ;
92 [label="gini = 0.0\nsamples = 0.0%\nvalue = [1.0, 0.0]"] ;
90 -> 92 ;
93 [label="gini = 0.0\nsamples = 0.0%\nvalue = [0.0, 1.0]"] ;
89 -> 93 ;
94 [label="gini = 0.0\nsamples = 0.0%\nvalue = [1.0, 0.0]"] ;
88 -> 94 ;
95 [label="gini = 0.0\nsamples = 0.0%\nvalue = [1.0, 0.0]"] ;
87 -> 95 ;
96 [label="gini = 0.0\nsamples = 0.0%\nvalue = [1.0, 0.0]"] ;
86 -> 96 ;
97 [label="gini = 0.0\nsamples = 0.0%\nvalue = [1.0, 0.0]"] ;
85 -> 97 ;
98 [label="gini = 0.0\nsamples = 0.0%\nvalue = [1.0, 0.0]"] ;
80 -> 98 ;
99 [label="gini = 0.0\nsamples = 0.0%\nvalue = [1.0, 0.0]"] ;
77 -> 99 ;
100 [label="gini = 0.0\nsamples = 0.1%\nvalue = [1.0, 0.0]"] ;
76 -> 100 ;
101 [label="gini = 0.0\nsamples = 0.0%\nvalue = [1.0, 0.0]"] ;
7 -> 101 ;
102 [label="gini = 0.0\nsamples = 0.0%\nvalue = [1.0, 0.0]"] ;
6 -> 102 ;
103 [label="V5 <= 0.777\ngini = 0.243\nsamples = 1.1%\nvalue = [0.141, 0.859]"] ;
5 -> 103 ;
104 [label="V11 <= 0.256\ngini = 0.202\nsamples = 0.9%\nvalue = [0.114, 0.886]"] ;
103 -> 104 ;
105 [label="gini = 0.0\nsamples = 0.2%\nvalue = [1.0, 0.0]"] ;
104 -> 105 ;
106 [label="V17 <= 0.787\ngini = 0.167\nsamples = 0.7%\nvalue = [0.092, 0.908]"] ;
104 -> 106 ;
107 [label="V21 <= 0.556\ngini = 0.081\nsamples = 0.3%\nvalue = [0.042, 0.958]"] ;
106 -> 107 ;
108 [label="gini = 0.0\nsamples = 0.1%\nvalue = [1.0, 0.0]"] ;
107 -> 108 ;
109 [label="V4 <= 0.237\ngini = 0.067\nsamples = 0.2%\nvalue = [0.035, 0.965]"] ;
107 -> 109 ;
110 [label="gini = 0.0\nsamples = 0.0%\nvalue = [1.0, 0.0]"] ;
109 -> 110 ;
111 [label="V3 <= 0.851\ngini = 0.054\nsamples = 0.2%\nvalue = [0.028, 0.972]"] ;
109 -> 111 ;
112 [label="V18 <= 0.786\ngini = 0.046\nsamples = 0.2%\nvalue = [0.024, 0.976]"] ;
111 -> 112 ;
113 [label="V25 <= 0.597\ngini = 0.04\nsamples = 0.1%\nvalue = [0.02, 0.98]"] ;
112 -> 113 ;
114 [label="gini = 0.0\nsamples = 0.0%\nvalue = [1.0, 0.0]"] ;
113 -> 114 ;
115 [label="V12 <= 0.739\ngini = 0.035\nsamples = 0.1%\nvalue = [0.018, 0.982]"] ;
113 -> 115 ;
116 [label="V26 <= 0.324\ngini = 0.032\nsamples = 0.1%\nvalue = [0.016, 0.984]"] ;
115 -> 116 ;
117 [label="gini = 0.0\nsamples = 0.0%\nvalue = [1.0, 0.0]"] ;
116 -> 117 ;
118 [label="V23 <= 0.661\ngini = 0.03\nsamples = 0.1%\nvalue = [0.015, 0.985]"] ;
116 -> 118 ;
119 [label="gini = 0.0\nsamples = 0.0%\nvalue = [1.0, 0.0]"] ;
118 -> 119 ;
120 [label="V28 <= 0.318\ngini = 0.028\nsamples = 0.1%\nvalue = [0.014, 0.986]"] ;
118 -> 120 ;
121 [label="V24 <= 0.262\ngini = 0.026\nsamples = 0.1%\nvalue = [0.013, 0.987]"] ;
120 -> 121 ;
122 [label="gini = 0.0\nsamples = 0.0%\nvalue = [1.0, 0.0]"] ;
121 -> 122 ;
123 [label="V22 <= 0.472\ngini = 0.025\nsamples = 0.1%\nvalue = [0.013, 0.987]"] ;
121 -> 123 ;
124 [label="gini = 0.0\nsamples = 0.0%\nvalue = [1.0, 0.0]"] ;
123 -> 124 ;
125 [label="V24 <= 0.47\ngini = 0.024\nsamples = 0.1%\nvalue = [0.012, 0.988]"] ;
123 -> 125 ;
126 [label="Time <= 0.047\ngini = 0.023\nsamples = 0.1%\nvalue = [0.012, 0.988]"] ;
125 -> 126 ;
127 [label="gini = 0.0\nsamples = 0.0%\nvalue = [1.0, 0.0]"] ;
126 -> 127 ;
128 [label="V13 <= 0.287\ngini = 0.022\nsamples = 0.1%\nvalue = [0.011, 0.989]"] ;
126 -> 128 ;
129 [label="gini = 0.0\nsamples = 0.0%\nvalue = [1.0, 0.0]"] ;
128 -> 129 ;
130 [label="V27 <= 0.416\ngini = 0.022\nsamples = 0.1%\nvalue = [0.011, 0.989]"] ;
128 -> 130 ;
131 [label="V5 <= 0.764\ngini = 0.096\nsamples = 0.0%\nvalue = [0.051, 0.949]"] ;
130 -> 131 ;
132 [label="V4 <= 0.327\ngini = 0.003\nsamples = 0.0%\nvalue = [0.001, 0.999]"] ;
131 -> 132 ;
133 [label="gini = 0.0\nsamples = 0.0%\nvalue = [1.0, 0.0]"] ;
132 -> 133 ;
134 [label="gini = 0.0\nsamples = 0.0%\nvalue = [0.0, 1.0]"] ;
132 -> 134 ;
135 [label="gini = 0.0\nsamples = 0.0%\nvalue = [1.0, 0.0]"] ;
131 -> 135 ;
136 [label="V24 <= 0.435\ngini = 0.013\nsamples = 0.0%\nvalue = [0.006, 0.994]"] ;
130 -> 136 ;
137 [label="V23 <= 0.664\ngini = 0.011\nsamples = 0.0%\nvalue = [0.006, 0.994]"] ;
136 -> 137 ;
138 [label="gini = 0.0\nsamples = 0.0%\nvalue = [1.0, 0.0]"] ;
137 -> 138 ;
139 [label="V9 <= 0.507\ngini = 0.011\nsamples = 0.0%\nvalue = [0.005, 0.995]"] ;
137 -> 139 ;
140 [label="V20 <= 0.578\ngini = 0.01\nsamples = 0.0%\nvalue = [0.005, 0.995]"] ;
139 -> 140 ;
141 [label="gini = 0.0\nsamples = 0.0%\nvalue = [1.0, 0.0]"] ;
140 -> 141 ;
142 [label="V19 <= 0.436\ngini = 0.01\nsamples = 0.0%\nvalue = [0.005, 0.995]"] ;
140 -> 142 ;
143 [label="gini = 0.0\nsamples = 0.0%\nvalue = [1.0, 0.0]"] ;
142 -> 143 ;
144 [label="V13 <= 0.56\ngini = 0.01\nsamples = 0.0%\nvalue = [0.005, 0.995]"] ;
142 -> 144 ;
145 [label="Time <= 0.987\ngini = 0.01\nsamples = 0.0%\nvalue = [0.005, 0.995]"] ;
144 -> 145 ;
146 [label="V18 <= 0.74\ngini = 0.009\nsamples = 0.0%\nvalue = [0.005, 0.995]"] ;
145 -> 146 ;
147 [label="V3 <= 0.822\ngini = 0.006\nsamples = 0.0%\nvalue = [0.003, 0.997]"] ;
146 -> 147 ;
148 [label="Amount <= 0.0\ngini = 0.003\nsamples = 0.0%\nvalue = [0.001, 0.999]"] ;
147 -> 148 ;
149 [label="gini = 0.0\nsamples = 0.0%\nvalue = [1.0, 0.0]"] ;
148 -> 149 ;
150 [label="V14 <= 0.583\ngini = 0.002\nsamples = 0.0%\nvalue = [0.001, 0.999]"] ;
148 -> 150 ;
151 [label="V26 <= 0.377\ngini = 0.002\nsamples = 0.0%\nvalue = [0.001, 0.999]"] ;
150 -> 151 ;
152 [label="V2 <= 0.764\ngini = 0.017\nsamples = 0.0%\nvalue = [0.009, 0.991]"] ;
151 -> 152 ;
153 [label="gini = 0.0\nsamples = 0.0%\nvalue = [0.0, 1.0]"] ;
152 -> 153 ;
154 [label="gini = 0.0\nsamples = 0.0%\nvalue = [1.0, 0.0]"] ;
152 -> 154 ;
155 [label="gini = 0.0\nsamples = 0.0%\nvalue = [0.0, 1.0]"] ;
151 -> 155 ;
156 [label="gini = 0.0\nsamples = 0.0%\nvalue = [1.0, 0.0]"] ;
150 -> 156 ;
157 [label="V6 <= 0.26\ngini = 0.028\nsamples = 0.0%\nvalue = [0.014, 0.986]"] ;
147 -> 157 ;
158 [label="gini = 0.0\nsamples = 0.0%\nvalue = [1.0, 0.0]"] ;
157 -> 158 ;
159 [label="gini = 0.0\nsamples = 0.0%\nvalue = [0.0, 1.0]"] ;
157 -> 159 ;
160 [label="V17 <= 0.754\ngini = 0.065\nsamples = 0.0%\nvalue = [0.033, 0.967]"] ;
146 -> 160 ;
161 [label="gini = 0.0\nsamples = 0.0%\nvalue = [0.0, 1.0]"] ;
160 -> 161 ;
162 [label="gini = 0.0\nsamples = 0.0%\nvalue = [1.0, 0.0]"] ;
160 -> 162 ;
163 [label="gini = 0.0\nsamples = 0.0%\nvalue = [1.0, 0.0]"] ;
145 -> 163 ;
164 [label="gini = 0.0\nsamples = 0.0%\nvalue = [1.0, 0.0]"] ;
144 -> 164 ;
165 [label="gini = 0.0\nsamples = 0.0%\nvalue = [1.0, 0.0]"] ;
139 -> 165 ;
166 [label="gini = 0.0\nsamples = 0.0%\nvalue = [1.0, 0.0]"] ;
136 -> 166 ;
167 [label="gini = 0.0\nsamples = 0.0%\nvalue = [1.0, 0.0]"] ;
125 -> 167 ;
168 [label="gini = 0.0\nsamples = 0.0%\nvalue = [1.0, 0.0]"] ;
120 -> 168 ;
169 [label="gini = 0.0\nsamples = 0.0%\nvalue = [1.0, 0.0]"] ;
115 -> 169 ;
170 [label="gini = 0.0\nsamples = 0.0%\nvalue = [1.0, 0.0]"] ;
112 -> 170 ;
171 [label="gini = 0.0\nsamples = 0.0%\nvalue = [1.0, 0.0]"] ;
111 -> 171 ;
172 [label="V23 <= 0.692\ngini = 0.48\nsamples = 0.4%\nvalue = [0.401, 0.599]"] ;
106 -> 172 ;
173 [label="gini = -0.0\nsamples = 0.4%\nvalue = [1.0, 0.0]"] ;
172 -> 173 ;
174 [label="V24 <= 0.361\ngini = 0.003\nsamples = 0.0%\nvalue = [0.001, 0.999]"] ;
172 -> 174 ;
175 [label="gini = 0.0\nsamples = 0.0%\nvalue = [1.0, 0.0]"] ;
174 -> 175 ;
176 [label="gini = 0.0\nsamples = 0.0%\nvalue = [0.0, 1.0]"] ;
174 -> 176 ;
177 [label="gini = 0.0\nsamples = 0.2%\nvalue = [1.0, 0.0]"] ;
103 -> 177 ;
178 [label="gini = 0.0\nsamples = 0.2%\nvalue = [1.0, 0.0]"] ;
4 -> 178 ;
179 [label="gini = 0.0\nsamples = 0.4%\nvalue = [1.0, 0.0]"] ;
3 -> 179 ;
180 [label="V4 <= 0.323\ngini = 0.231\nsamples = 97.2%\nvalue = [0.867, 0.133]"] ;
0 -> 180 [labeldistance=2.5, labelangle=45, headlabel="False"] ;
181 [label="V4 <= 0.283\ngini = 0.135\nsamples = 89.4%\nvalue = [0.927, 0.073]"] ;
180 -> 181 ;
182 [label="V22 <= 0.61\ngini = 0.069\nsamples = 73.6%\nvalue = [0.964, 0.036]"] ;
181 -> 182 ;
183 [label="V21 <= 0.547\ngini = 0.062\nsamples = 73.5%\nvalue = [0.968, 0.032]"] ;
182 -> 183 ;
184 [label="V15 <= 0.398\ngini = 0.44\nsamples = 1.3%\nvalue = [0.673, 0.327]"] ;
183 -> 184 ;
185 [label="gini = 0.0\nsamples = 1.1%\nvalue = [1.0, 0.0]"] ;
184 -> 185 ;
186 [label="V21 <= 0.545\ngini = 0.353\nsamples = 0.2%\nvalue = [0.229, 0.771]"] ;
184 -> 186 ;
187 [label="gini = -0.0\nsamples = 0.2%\nvalue = [1.0, 0.0]"] ;
186 -> 187 ;
188 [label="V16 <= 0.454\ngini = 0.067\nsamples = 0.0%\nvalue = [0.035, 0.965]"] ;
186 -> 188 ;
189 [label="gini = 0.0\nsamples = 0.0%\nvalue = [1.0, 0.0]"] ;
188 -> 189 ;
190 [label="V6 <= 0.28\ngini = 0.016\nsamples = 0.0%\nvalue = [0.008, 0.992]"] ;
188 -> 190 ;
191 [label="V12 <= 0.67\ngini = 0.001\nsamples = 0.0%\nvalue = [0.001, 0.999]"] ;
190 -> 191 ;
192 [label="gini = 0.0\nsamples = 0.0%\nvalue = [1.0, 0.0]"] ;
191 -> 192 ;
193 [label="gini = 0.0\nsamples = 0.0%\nvalue = [0.0, 1.0]"] ;
191 -> 193 ;
194 [label="gini = 0.0\nsamples = 0.0%\nvalue = [1.0, 0.0]"] ;
190 -> 194 ;
195 [label="V10 <= 0.488\ngini = 0.048\nsamples = 72.3%\nvalue = [0.975, 0.025]"] ;
183 -> 195 ;
196 [label="V10 <= 0.487\ngini = 0.239\nsamples = 7.6%\nvalue = [0.862, 0.138]"] ;
195 -> 196 ;
197 [label="V7 <= 0.284\ngini = 0.142\nsamples = 7.3%\nvalue = [0.923, 0.077]"] ;
196 -> 197 ;
198 [label="V3 <= 0.872\ngini = 0.079\nsamples = 7.1%\nvalue = [0.959, 0.041]"] ;
197 -> 198 ;
199 [label="gini = -0.0\nsamples = 6.4%\nvalue = [1.0, 0.0]"] ;
198 -> 199 ;
200 [label="V3 <= 0.872\ngini = 0.41\nsamples = 0.8%\nvalue = [0.712, 0.288]"] ;
198 -> 200 ;
201 [label="gini = 0.0\nsamples = 0.0%\nvalue = [0.0, 1.0]"] ;
200 -> 201 ;
202 [label="gini = 0.0\nsamples = 0.8%\nvalue = [1.0, 0.0]"] ;
200 -> 202 ;
203 [label="V7 <= 0.284\ngini = 0.48\nsamples = 0.2%\nvalue = [0.4, 0.6]"] ;
197 -> 203 ;
204 [label="gini = 0.0\nsamples = 0.0%\nvalue = [0.0, 1.0]"] ;
203 -> 204 ;
205 [label="gini = -0.0\nsamples = 0.2%\nvalue = [1.0, 0.0]"] ;
203 -> 205 ;
206 [label="V19 <= 0.493\ngini = 0.415\nsamples = 0.3%\nvalue = [0.294, 0.706]"] ;
196 -> 206 ;
207 [label="V13 <= 0.372\ngini = 0.1\nsamples = 0.0%\nvalue = [0.053, 0.947]"] ;
206 -> 207 ;
208 [label="V3 <= 0.86\ngini = 0.011\nsamples = 0.0%\nvalue = [0.006, 0.994]"] ;
207 -> 208 ;
209 [label="gini = 0.0\nsamples = 0.0%\nvalue = [0.0, 1.0]"] ;
208 -> 209 ;
210 [label="gini = 0.0\nsamples = 0.0%\nvalue = [1.0, 0.0]"] ;
208 -> 210 ;
211 [label="gini = 0.0\nsamples = 0.0%\nvalue = [1.0, 0.0]"] ;
207 -> 211 ;
212 [label="gini = -0.0\nsamples = 0.2%\nvalue = [1.0, 0.0]"] ;
206 -> 212 ;
213 [label="V26 <= 0.629\ngini = 0.018\nsamples = 64.7%\nvalue = [0.991, 0.009]"] ;
195 -> 213 ;
214 [label="V23 <= 0.682\ngini = 0.009\nsamples = 64.3%\nvalue = [0.995, 0.005]"] ;
213 -> 214 ;
215 [label="gini = 0.0\nsamples = 63.3%\nvalue = [1.0, 0.0]"] ;
214 -> 215 ;
216 [label="V23 <= 0.682\ngini = 0.367\nsamples = 1.0%\nvalue = [0.758, 0.242]"] ;
214 -> 216 ;
217 [label="gini = 0.0\nsamples = 0.0%\nvalue = [0.0, 1.0]"] ;
216 -> 217 ;
218 [label="gini = 0.0\nsamples = 1.0%\nvalue = [1.0, 0.0]"] ;
216 -> 218 ;
219 [label="V26 <= 0.629\ngini = 0.488\nsamples = 0.4%\nvalue = [0.577, 0.423]"] ;
213 -> 219 ;
220 [label="gini = 0.0\nsamples = 0.0%\nvalue = [0.0, 1.0]"] ;
219 -> 220 ;
221 [label="gini = -0.0\nsamples = 0.4%\nvalue = [1.0, 0.0]"] ;
219 -> 221 ;
222 [label="V22 <= 0.611\ngini = 0.341\nsamples = 0.1%\nvalue = [0.218, 0.782]"] ;
182 -> 222 ;
223 [label="gini = 0.0\nsamples = 0.0%\nvalue = [0.0, 1.0]"] ;
222 -> 223 ;
224 [label="gini = 0.0\nsamples = 0.1%\nvalue = [1.0, 0.0]"] ;
222 -> 224 ;
225 [label="V12 <= 0.683\ngini = 0.336\nsamples = 15.8%\nvalue = [0.787, 0.213]"] ;
181 -> 225 ;
226 [label="V13 <= 0.464\ngini = 0.496\nsamples = 2.0%\nvalue = [0.454, 0.546]"] ;
225 -> 226 ;
227 [label="V11 <= 0.227\ngini = 0.419\nsamples = 1.0%\nvalue = [0.299, 0.701]"] ;
226 -> 227 ;
228 [label="gini = 0.0\nsamples = 0.4%\nvalue = [1.0, 0.0]"] ;
227 -> 228 ;
229 [label="V8 <= 0.791\ngini = 0.32\nsamples = 0.6%\nvalue = [0.2, 0.8]"] ;
227 -> 229 ;
230 [label="V3 <= 0.859\ngini = 0.24\nsamples = 0.4%\nvalue = [0.139, 0.861]"] ;
229 -> 230 ;
231 [label="V9 <= 0.448\ngini = 0.193\nsamples = 0.3%\nvalue = [0.108, 0.892]"] ;
230 -> 231 ;
232 [label="gini = 0.0\nsamples = 0.1%\nvalue = [1.0, 0.0]"] ;
231 -> 232 ;
233 [label="V12 <= 0.649\ngini = 0.157\nsamples = 0.2%\nvalue = [0.086, 0.914]"] ;
231 -> 233 ;
234 [label="gini = 0.0\nsamples = 0.1%\nvalue = [1.0, 0.0]"] ;
233 -> 234 ;
235 [label="V1 <= 0.979\ngini = 0.122\nsamples = 0.2%\nvalue = [0.065, 0.935]"] ;
233 -> 235 ;
236 [label="V13 <= 0.283\ngini = 0.097\nsamples = 0.1%\nvalue = [0.051, 0.949]"] ;
235 -> 236 ;
237 [label="gini = 0.0\nsamples = 0.0%\nvalue = [1.0, 0.0]"] ;
236 -> 237 ;
238 [label="V19 <= 0.655\ngini = 0.078\nsamples = 0.1%\nvalue = [0.041, 0.959]"] ;
236 -> 238 ;
239 [label="Time <= 0.205\ngini = 0.067\nsamples = 0.1%\nvalue = [0.035, 0.965]"] ;
238 -> 239 ;
240 [label="gini = 0.0\nsamples = 0.0%\nvalue = [1.0, 0.0]"] ;
239 -> 240 ;
241 [label="V28 <= 0.309\ngini = 0.058\nsamples = 0.1%\nvalue = [0.03, 0.97]"] ;
239 -> 241 ;
242 [label="gini = 0.0\nsamples = 0.0%\nvalue = [1.0, 0.0]"] ;
241 -> 242 ;
243 [label="V2 <= 0.749\ngini = 0.052\nsamples = 0.1%\nvalue = [0.026, 0.974]"] ;
241 -> 243 ;
244 [label="gini = 0.0\nsamples = 0.0%\nvalue = [1.0, 0.0]"] ;
243 -> 244 ;
245 [label="V26 <= 0.326\ngini = 0.048\nsamples = 0.1%\nvalue = [0.025, 0.975]"] ;
243 -> 245 ;
246 [label="gini = 0.0\nsamples = 0.0%\nvalue = [1.0, 0.0]"] ;
245 -> 246 ;
247 [label="V4 <= 0.284\ngini = 0.045\nsamples = 0.1%\nvalue = [0.023, 0.977]"] ;
245 -> 247 ;
248 [label="gini = 0.0\nsamples = 0.0%\nvalue = [1.0, 0.0]"] ;
247 -> 248 ;
249 [label="V16 <= 0.46\ngini = 0.041\nsamples = 0.1%\nvalue = [0.021, 0.979]"] ;
247 -> 249 ;
250 [label="V25 <= 0.671\ngini = 0.039\nsamples = 0.1%\nvalue = [0.02, 0.98]"] ;
249 -> 250 ;
251 [label="V27 <= 0.41\ngini = 0.037\nsamples = 0.1%\nvalue = [0.019, 0.981]"] ;
250 -> 251 ;
252 [label="gini = 0.0\nsamples = 0.0%\nvalue = [1.0, 0.0]"] ;
251 -> 252 ;
253 [label="V22 <= 0.552\ngini = 0.036\nsamples = 0.0%\nvalue = [0.018, 0.982]"] ;
251 -> 253 ;
254 [label="V18 <= 0.675\ngini = 0.035\nsamples = 0.0%\nvalue = [0.018, 0.982]"] ;
253 -> 254 ;
255 [label="V22 <= 0.472\ngini = 0.103\nsamples = 0.0%\nvalue = [0.054, 0.946]"] ;
254 -> 255 ;
256 [label="gini = 0.0\nsamples = 0.0%\nvalue = [0.0, 1.0]"] ;
255 -> 256 ;
257 [label="gini = 0.0\nsamples = 0.0%\nvalue = [1.0, 0.0]"] ;
255 -> 257 ;
258 [label="V6 <= 0.254\ngini = 0.01\nsamples = 0.0%\nvalue = [0.005, 0.995]"] ;
254 -> 258 ;
259 [label="gini = 0.0\nsamples = 0.0%\nvalue = [1.0, 0.0]"] ;
258 -> 259 ;
260 [label="V9 <= 0.468\ngini = 0.004\nsamples = 0.0%\nvalue = [0.002, 0.998]"] ;
258 -> 260 ;
261 [label="V15 <= 0.342\ngini = 0.002\nsamples = 0.0%\nvalue = [0.001, 0.999]"] ;
260 -> 261 ;
262 [label="gini = 0.0\nsamples = 0.0%\nvalue = [1.0, 0.0]"] ;
261 -> 262 ;
263 [label="V12 <= 0.681\ngini = 0.0\nsamples = 0.0%\nvalue = [0.0, 1.0]"] ;
261 -> 263 ;
264 [label="gini = 0.0\nsamples = 0.0%\nvalue = [0.0, 1.0]"] ;
263 -> 264 ;
265 [label="gini = 0.0\nsamples = 0.0%\nvalue = [1.0, 0.0]"] ;
263 -> 265 ;
266 [label="gini = 0.0\nsamples = 0.0%\nvalue = [1.0, 0.0]"] ;
260 -> 266 ;
267 [label="gini = 0.0\nsamples = 0.0%\nvalue = [1.0, 0.0]"] ;
253 -> 267 ;
268 [label="gini = 0.0\nsamples = 0.0%\nvalue = [1.0, 0.0]"] ;
250 -> 268 ;
269 [label="gini = 0.0\nsamples = 0.0%\nvalue = [1.0, 0.0]"] ;
249 -> 269 ;
270 [label="gini = 0.0\nsamples = 0.0%\nvalue = [1.0, 0.0]"] ;
238 -> 270 ;
271 [label="gini = 0.0\nsamples = 0.0%\nvalue = [1.0, 0.0]"] ;
235 -> 271 ;
272 [label="gini = 0.0\nsamples = 0.1%\nvalue = [1.0, 0.0]"] ;
230 -> 272 ;
273 [label="gini = 0.0\nsamples = 0.2%\nvalue = [1.0, 0.0]"] ;
229 -> 273 ;
274 [label="gini = 0.0\nsamples = 1.0%\nvalue = [1.0, 0.0]"] ;
226 -> 274 ;
275 [label="V21 <= 0.575\ngini = 0.208\nsamples = 13.7%\nvalue = [0.882, 0.118]"] ;
225 -> 275 ;
276 [label="V4 <= 0.289\ngini = 0.153\nsamples = 13.4%\nvalue = [0.917, 0.083]"] ;
275 -> 276 ;
277 [label="V4 <= 0.289\ngini = 0.444\nsamples = 2.5%\nvalue = [0.668, 0.332]"] ;
276 -> 277 ;
278 [label="V4 <= 0.283\ngini = 0.209\nsamples = 2.3%\nvalue = [0.882, 0.118]"] ;
277 -> 278 ;
279 [label="gini = 0.0\nsamples = 0.0%\nvalue = [0.0, 1.0]"] ;
278 -> 279 ;
280 [label="gini = 0.0\nsamples = 2.3%\nvalue = [1.0, 0.0]"] ;
278 -> 280 ;
281 [label="V14 <= 0.646\ngini = 0.277\nsamples = 0.2%\nvalue = [0.166, 0.834]"] ;
277 -> 281 ;
282 [label="V9 <= 0.46\ngini = 0.134\nsamples = 0.1%\nvalue = [0.072, 0.928]"] ;
281 -> 282 ;
283 [label="V28 <= 0.314\ngini = 0.053\nsamples = 0.0%\nvalue = [0.027, 0.973]"] ;
282 -> 283 ;
284 [label="V20 <= 0.58\ngini = 0.019\nsamples = 0.0%\nvalue = [0.01, 0.99]"] ;
283 -> 284 ;
285 [label="V3 <= 0.841\ngini = 0.006\nsamples = 0.0%\nvalue = [0.003, 0.997]"] ;
284 -> 285 ;
286 [label="gini = 0.0\nsamples = 0.0%\nvalue = [1.0, 0.0]"] ;
285 -> 286 ;
287 [label="V19 <= 0.503\ngini = 0.001\nsamples = 0.0%\nvalue = [0.0, 1.0]"] ;
285 -> 287 ;
288 [label="gini = 0.0\nsamples = 0.0%\nvalue = [1.0, 0.0]"] ;
287 -> 288 ;
289 [label="gini = 0.0\nsamples = 0.0%\nvalue = [0.0, 1.0]"] ;
287 -> 289 ;
290 [label="gini = 0.0\nsamples = 0.0%\nvalue = [1.0, 0.0]"] ;
284 -> 290 ;
291 [label="gini = 0.0\nsamples = 0.0%\nvalue = [1.0, 0.0]"] ;
283 -> 291 ;
292 [label="gini = 0.0\nsamples = 0.0%\nvalue = [1.0, 0.0]"] ;
282 -> 292 ;
293 [label="gini = 0.0\nsamples = 0.1%\nvalue = [1.0, 0.0]"] ;
281 -> 293 ;
294 [label="gini = -0.0\nsamples = 11.0%\nvalue = [1.0, 0.0]"] ;
276 -> 294 ;
295 [label="V13 <= 0.332\ngini = 0.439\nsamples = 0.3%\nvalue = [0.325, 0.675]"] ;
275 -> 295 ;
296 [label="V9 <= 0.496\ngini = 0.036\nsamples = 0.0%\nvalue = [0.018, 0.982]"] ;
295 -> 296 ;
297 [label="gini = 0.0\nsamples = 0.0%\nvalue = [1.0, 0.0]"] ;
296 -> 297 ;
298 [label="V8 <= 0.78\ngini = 0.006\nsamples = 0.0%\nvalue = [0.003, 0.997]"] ;
296 -> 298 ;
299 [label="gini = 0.0\nsamples = 0.0%\nvalue = [1.0, 0.0]"] ;
298 -> 299 ;
300 [label="gini = 0.0\nsamples = 0.0%\nvalue = [0.0, 1.0]"] ;
298 -> 300 ;
301 [label="gini = -0.0\nsamples = 0.3%\nvalue = [1.0, 0.0]"] ;
295 -> 301 ;
302 [label="V12 <= 0.687\ngini = 0.5\nsamples = 7.8%\nvalue = [0.495, 0.505]"] ;
180 -> 302 ;
303 [label="V3 <= 0.859\ngini = 0.384\nsamples = 2.4%\nvalue = [0.259, 0.741]"] ;
302 -> 303 ;
304 [label="V14 <= 0.655\ngini = 0.293\nsamples = 1.4%\nvalue = [0.178, 0.822]"] ;
303 -> 304 ;
305 [label="V11 <= 0.195\ngini = 0.141\nsamples = 0.4%\nvalue = [0.076, 0.924]"] ;
304 -> 305 ;
306 [label="gini = 0.0\nsamples = 0.2%\nvalue = [1.0, 0.0]"] ;
305 -> 306 ;
307 [label="V8 <= 0.794\ngini = 0.094\nsamples = 0.3%\nvalue = [0.049, 0.951]"] ;
305 -> 307 ;
308 [label="V1 <= 0.979\ngini = 0.076\nsamples = 0.2%\nvalue = [0.04, 0.96]"] ;
307 -> 308 ;
309 [label="V25 <= 0.663\ngini = 0.063\nsamples = 0.2%\nvalue = [0.032, 0.968]"] ;
308 -> 309 ;
310 [label="V9 <= 0.493\ngini = 0.054\nsamples = 0.2%\nvalue = [0.028, 0.972]"] ;
309 -> 310 ;
311 [label="Time <= 0.908\ngini = 0.049\nsamples = 0.1%\nvalue = [0.025, 0.975]"] ;
310 -> 311 ;
312 [label="Amount <= 0.04\ngini = 0.043\nsamples = 0.1%\nvalue = [0.022, 0.978]"] ;
311 -> 312 ;
313 [label="V24 <= 0.279\ngini = 0.039\nsamples = 0.1%\nvalue = [0.02, 0.98]"] ;
312 -> 313 ;
314 [label="gini = 0.0\nsamples = 0.0%\nvalue = [1.0, 0.0]"] ;
313 -> 314 ;
315 [label="V17 <= 0.809\ngini = 0.036\nsamples = 0.1%\nvalue = [0.018, 0.982]"] ;
313 -> 315 ;
316 [label="V10 <= 0.595\ngini = 0.034\nsamples = 0.1%\nvalue = [0.017, 0.983]"] ;
315 -> 316 ;
317 [label="V26 <= 0.327\ngini = 0.033\nsamples = 0.1%\nvalue = [0.017, 0.983]"] ;
316 -> 317 ;
318 [label="gini = 0.0\nsamples = 0.0%\nvalue = [1.0, 0.0]"] ;
317 -> 318 ;
319 [label="V25 <= 0.536\ngini = 0.031\nsamples = 0.1%\nvalue = [0.016, 0.984]"] ;
317 -> 319 ;
320 [label="gini = 0.0\nsamples = 0.0%\nvalue = [1.0, 0.0]"] ;
319 -> 320 ;
321 [label="V11 <= 0.26\ngini = 0.03\nsamples = 0.1%\nvalue = [0.015, 0.985]"] ;
319 -> 321 ;
322 [label="V6 <= 0.258\ngini = 0.11\nsamples = 0.1%\nvalue = [0.058, 0.942]"] ;
321 -> 322 ;
323 [label="V6 <= 0.258\ngini = 0.02\nsamples = 0.0%\nvalue = [0.01, 0.99]"] ;
322 -> 323 ;
324 [label="gini = 0.0\nsamples = 0.0%\nvalue = [1.0, 0.0]"] ;
323 -> 324 ;
325 [label="V8 <= 0.784\ngini = 0.002\nsamples = 0.0%\nvalue = [0.001, 0.999]"] ;
323 -> 325 ;
326 [label="gini = 0.0\nsamples = 0.0%\nvalue = [1.0, 0.0]"] ;
325 -> 326 ;
327 [label="gini = 0.0\nsamples = 0.0%\nvalue = [0.0, 1.0]"] ;
325 -> 327 ;
328 [label="gini = 0.0\nsamples = 0.0%\nvalue = [1.0, 0.0]"] ;
322 -> 328 ;
329 [label="V24 <= 0.469\ngini = 0.011\nsamples = 0.0%\nvalue = [0.006, 0.994]"] ;
321 -> 329 ;
330 [label="V22 <= 0.451\ngini = 0.01\nsamples = 0.0%\nvalue = [0.005, 0.995]"] ;
329 -> 330 ;
331 [label="gini = 0.0\nsamples = 0.0%\nvalue = [1.0, 0.0]"] ;
330 -> 331 ;
332 [label="Time <= 0.857\ngini = 0.009\nsamples = 0.0%\nvalue = [0.005, 0.995]"] ;
330 -> 332 ;
333 [label="V15 <= 0.486\ngini = 0.009\nsamples = 0.0%\nvalue = [0.004, 0.996]"] ;
332 -> 333 ;
334 [label="V14 <= 0.584\ngini = 0.008\nsamples = 0.0%\nvalue = [0.004, 0.996]"] ;
333 -> 334 ;
335 [label="gini = 0.0\nsamples = 0.0%\nvalue = [1.0, 0.0]"] ;
334 -> 335 ;
336 [label="V18 <= 0.776\ngini = 0.008\nsamples = 0.0%\nvalue = [0.004, 0.996]"] ;
334 -> 336 ;
337 [label="V14 <= 0.654\ngini = 0.007\nsamples = 0.0%\nvalue = [0.004, 0.996]"] ;
336 -> 337 ;
338 [label="V26 <= 0.529\ngini = 0.007\nsamples = 0.0%\nvalue = [0.003, 0.997]"] ;
337 -> 338 ;
339 [label="V10 <= 0.508\ngini = 0.007\nsamples = 0.0%\nvalue = [0.003, 0.997]"] ;
338 -> 339 ;
340 [label="V28 <= 0.317\ngini = 0.002\nsamples = 0.0%\nvalue = [0.001, 0.999]"] ;
339 -> 340 ;
341 [label="V24 <= 0.418\ngini = 0.001\nsamples = 0.0%\nvalue = [0.0, 1.0]"] ;
340 -> 341 ;
342 [label="V15 <= 0.445\ngini = 0.0\nsamples = 0.0%\nvalue = [0.0, 1.0]"] ;
341 -> 342 ;
343 [label="gini = 0.0\nsamples = 0.0%\nvalue = [0.0, 1.0]"] ;
342 -> 343 ;
344 [label="V22 <= 0.503\ngini = 0.003\nsamples = 0.0%\nvalue = [0.001, 0.999]"] ;
342 -> 344 ;
345 [label="gini = 0.0\nsamples = 0.0%\nvalue = [1.0, 0.0]"] ;
344 -> 345 ;
346 [label="gini = 0.0\nsamples = 0.0%\nvalue = [0.0, 1.0]"] ;
344 -> 346 ;
347 [label="gini = 0.0\nsamples = 0.0%\nvalue = [1.0, 0.0]"] ;
341 -> 347 ;
348 [label="gini = 0.0\nsamples = 0.0%\nvalue = [1.0, 0.0]"] ;
340 -> 348 ;
349 [label="V20 <= 0.571\ngini = 0.023\nsamples = 0.0%\nvalue = [0.012, 0.988]"] ;
339 -> 349 ;
350 [label="V3 <= 0.817\ngini = 0.001\nsamples = 0.0%\nvalue = [0.0, 1.0]"] ;
349 -> 350 ;
351 [label="gini = 0.0\nsamples = 0.0%\nvalue = [1.0, 0.0]"] ;
350 -> 351 ;
352 [label="gini = 0.0\nsamples = 0.0%\nvalue = [0.0, 1.0]"] ;
350 -> 352 ;
353 [label="gini = 0.0\nsamples = 0.0%\nvalue = [1.0, 0.0]"] ;
349 -> 353 ;
354 [label="gini = 0.0\nsamples = 0.0%\nvalue = [1.0, 0.0]"] ;
338 -> 354 ;
355 [label="gini = 0.0\nsamples = 0.0%\nvalue = [1.0, 0.0]"] ;
337 -> 355 ;
356 [label="gini = 0.0\nsamples = 0.0%\nvalue = [1.0, 0.0]"] ;
336 -> 356 ;
357 [label="gini = 0.0\nsamples = 0.0%\nvalue = [1.0, 0.0]"] ;
333 -> 357 ;
358 [label="gini = 0.0\nsamples = 0.0%\nvalue = [1.0, 0.0]"] ;
332 -> 358 ;
359 [label="gini = 0.0\nsamples = 0.0%\nvalue = [1.0, 0.0]"] ;
329 -> 359 ;
360 [label="gini = 0.0\nsamples = 0.0%\nvalue = [1.0, 0.0]"] ;
316 -> 360 ;
361 [label="gini = 0.0\nsamples = 0.0%\nvalue = [1.0, 0.0]"] ;
315 -> 361 ;
362 [label="gini = 0.0\nsamples = 0.0%\nvalue = [1.0, 0.0]"] ;
312 -> 362 ;
363 [label="gini = 0.0\nsamples = 0.0%\nvalue = [1.0, 0.0]"] ;
311 -> 363 ;
364 [label="gini = 0.0\nsamples = 0.0%\nvalue = [1.0, 0.0]"] ;
310 -> 364 ;
365 [label="gini = 0.0\nsamples = 0.0%\nvalue = [1.0, 0.0]"] ;
309 -> 365 ;
366 [label="gini = 0.0\nsamples = 0.0%\nvalue = [1.0, 0.0]"] ;
308 -> 366 ;
367 [label="gini = 0.0\nsamples = 0.1%\nvalue = [1.0, 0.0]"] ;
307 -> 367 ;
368 [label="V28 <= 0.312\ngini = 0.493\nsamples = 1.0%\nvalue = [0.441, 0.559]"] ;
304 -> 368 ;
369 [label="V4 <= 0.418\ngini = 0.293\nsamples = 0.3%\nvalue = [0.179, 0.821]"] ;
368 -> 369 ;
370 [label="gini = 0.0\nsamples = 0.2%\nvalue = [1.0, 0.0]"] ;
369 -> 370 ;
371 [label="V23 <= 0.671\ngini = 0.114\nsamples = 0.1%\nvalue = [0.061, 0.939]"] ;
369 -> 371 ;
372 [label="gini = 0.0\nsamples = 0.1%\nvalue = [1.0, 0.0]"] ;
371 -> 372 ;
373 [label="V18 <= 0.647\ngini = 0.043\nsamples = 0.0%\nvalue = [0.022, 0.978]"] ;
371 -> 373 ;
374 [label="V25 <= 0.625\ngini = 0.015\nsamples = 0.0%\nvalue = [0.008, 0.992]"] ;
373 -> 374 ;
375 [label="V15 <= 0.311\ngini = 0.004\nsamples = 0.0%\nvalue = [0.002, 0.998]"] ;
374 -> 375 ;
376 [label="V19 <= 0.385\ngini = 0.001\nsamples = 0.0%\nvalue = [0.0, 1.0]"] ;
375 -> 376 ;
377 [label="gini = 0.0\nsamples = 0.0%\nvalue = [1.0, 0.0]"] ;
376 -> 377 ;
378 [label="gini = 0.0\nsamples = 0.0%\nvalue = [0.0, 1.0]"] ;
376 -> 378 ;
379 [label="gini = 0.0\nsamples = 0.0%\nvalue = [1.0, 0.0]"] ;
375 -> 379 ;
380 [label="gini = 0.0\nsamples = 0.0%\nvalue = [1.0, 0.0]"] ;
374 -> 380 ;
381 [label="gini = 0.0\nsamples = 0.0%\nvalue = [1.0, 0.0]"] ;
373 -> 381 ;
382 [label="gini = -0.0\nsamples = 0.7%\nvalue = [1.0, 0.0]"] ;
368 -> 382 ;
383 [label="V19 <= 0.365\ngini = 0.366\nsamples = 1.0%\nvalue = [0.759, 0.241]"] ;
303 -> 383 ;
384 [label="V19 <= 0.364\ngini = 0.101\nsamples = 0.0%\nvalue = [0.053, 0.947]"] ;
383 -> 384 ;
385 [label="gini = 0.0\nsamples = 0.0%\nvalue = [1.0, 0.0]"] ;
384 -> 385 ;
386 [label="gini = 0.0\nsamples = 0.0%\nvalue = [0.0, 1.0]"] ;
384 -> 386 ;
387 [label="gini = 0.0\nsamples = 0.9%\nvalue = [1.0, 0.0]"] ;
383 -> 387 ;
388 [label="V11 <= 0.348\ngini = 0.3\nsamples = 5.4%\nvalue = [0.817, 0.183]"] ;
302 -> 388 ;
389 [label="V17 <= 0.694\ngini = 0.111\nsamples = 4.9%\nvalue = [0.941, 0.059]"] ;
388 -> 389 ;
390 [label="V17 <= 0.694\ngini = 0.493\nsamples = 0.2%\nvalue = [0.439, 0.561]"] ;
389 -> 390 ;
391 [label="gini = -0.0\nsamples = 0.2%\nvalue = [1.0, 0.0]"] ;
390 -> 391 ;
392 [label="gini = 0.0\nsamples = 0.0%\nvalue = [0.0, 1.0]"] ;
390 -> 392 ;
393 [label="gini = 0.0\nsamples = 4.6%\nvalue = [1.0, 0.0]"] ;
389 -> 393 ;
394 [label="V21 <= 0.559\ngini = 0.469\nsamples = 0.6%\nvalue = [0.375, 0.625]"] ;
388 -> 394 ;
395 [label="V12 <= 0.739\ngini = 0.209\nsamples = 0.1%\nvalue = [0.119, 0.881]"] ;
394 -> 395 ;
396 [label="gini = 0.0\nsamples = 0.1%\nvalue = [1.0, 0.0]"] ;
395 -> 396 ;
397 [label="V6 <= 0.268\ngini = 0.075\nsamples = 0.0%\nvalue = [0.039, 0.961]"] ;
395 -> 397 ;
398 [label="gini = 0.0\nsamples = 0.0%\nvalue = [1.0, 0.0]"] ;
397 -> 398 ;
399 [label="V11 <= 0.364\ngini = 0.022\nsamples = 0.0%\nvalue = [0.011, 0.989]"] ;
397 -> 399 ;
400 [label="V26 <= 0.403\ngini = 0.004\nsamples = 0.0%\nvalue = [0.002, 0.998]"] ;
399 -> 400 ;
401 [label="gini = 0.0\nsamples = 0.0%\nvalue = [1.0, 0.0]"] ;
400 -> 401 ;
402 [label="V23 <= 0.66\ngini = 0.001\nsamples = 0.0%\nvalue = [0.0, 1.0]"] ;
400 -> 402 ;
403 [label="gini = 0.0\nsamples = 0.0%\nvalue = [1.0, 0.0]"] ;
402 -> 403 ;
404 [label="gini = 0.0\nsamples = 0.0%\nvalue = [0.0, 1.0]"] ;
402 -> 404 ;
405 [label="gini = 0.0\nsamples = 0.0%\nvalue = [1.0, 0.0]"] ;
399 -> 405 ;
406 [label="gini = -0.0\nsamples = 0.4%\nvalue = [1.0, 0.0]"] ;
394 -> 406 ;
}
